<?xml version="1.0"?>
<opencv_storage>
<opencv_ml_svm>
  <format>3</format>
  <svmType>C_SVC</svmType>
  <kernel>
    <type>LINEAR</type></kernel>
  <C>1.</C>
  <term_criteria><iterations>10000</iterations></term_criteria>
  <var_count>1188</var_count>
  <class_count>2</class_count>
  <class_labels type_id="opencv-matrix">
    <rows>2</rows>
    <cols>1</cols>
    <dt>i</dt>
    <data>
      0 1</data></class_labels>
  <sv_total>1</sv_total>
  <support_vectors>
    <_>
      1.43962547e-01 5.55380024e-02 -2.01390088e-02 -9.50443149e-02
      -8.41063038e-02 7.87265506e-03 2.29823571e-02 4.90981601e-02
      8.82474184e-02 5.25461212e-02 5.29939169e-03 -5.91900796e-02
      -5.96214868e-02 -4.89814095e-02 2.11894531e-02 1.71320941e-02
      8.76357500e-03 4.41321079e-03 1.62656233e-02 2.70298980e-02
      2.21351571e-02 -5.81832118e-02 -5.18258028e-02 3.66124101e-02
      3.27163488e-02 2.88826581e-02 6.57321513e-02 -1.87369082e-02
      -8.22025700e-04 3.45196910e-02 3.16215083e-02 2.11160704e-02
      4.86286171e-02 1.76540073e-02 1.55308167e-03 -2.50309780e-02
      -3.02029960e-02 6.04548631e-03 -2.72762077e-03 -6.57956908e-03
      -5.73359197e-03 5.74881844e-02 4.17613015e-02 2.04229653e-02
      -3.73562425e-02 -3.21698785e-02 2.46344763e-03 2.54312418e-02
      9.81864240e-03 9.86015610e-03 4.62093875e-02 3.25145610e-02
      2.32440960e-02 -3.52080017e-02 -7.72562549e-02 -6.41076779e-03
      4.38965000e-02 5.28807566e-02 3.57507952e-02 7.78181925e-02
      4.43333872e-02 1.11471405e-02 -8.75489339e-02 -4.78669554e-02
      1.60107808e-03 2.38576662e-02 3.75978053e-02 2.17201319e-02
      4.79070507e-02 1.08392136e-02 -1.87846441e-02 -5.69924414e-02
      -2.60558613e-02 -3.17090340e-02 1.90197788e-02 4.14130799e-02
      7.15890750e-02 6.34645820e-02 2.77396641e-03 -1.02849184e-02
      -2.35335343e-02 -2.61771679e-02 -4.80423979e-02 -8.48748069e-03
      2.84943357e-02 7.84926489e-02 1.11583285e-01 1.59046352e-02
      -1.22101652e-02 -1.99457235e-03 -4.50279377e-02 -3.64745520e-02
      -3.05659650e-03 4.01582681e-02 4.81177494e-02 5.39081506e-02
      5.16560767e-03 -2.98616756e-02 -5.19768260e-02 -4.32554632e-02
      -6.91378340e-02 -4.42583933e-02 -3.07230558e-02 5.48082823e-03
      6.31576106e-02 9.57044214e-03 -1.61389355e-02 -4.73807678e-02
      7.32074305e-03 -5.80225745e-03 6.11788593e-03 -6.81469217e-02
      -4.83389571e-02 3.81947011e-02 4.66897935e-02 5.13699874e-02
      8.93329829e-02 -1.43156033e-02 2.30156742e-02 3.73220779e-02
      3.65371816e-02 4.66960147e-02 3.17007303e-02 4.00435887e-02
      1.74999908e-02 8.20725691e-03 4.73661982e-02 -8.51983950e-03
      -1.26424422e-02 -6.94228411e-02 -8.06748793e-02 -7.21782632e-03
      1.18921716e-02 5.66588854e-03 3.63821350e-02 -1.80971064e-02
      1.75754987e-02 7.85232801e-03 -7.49455066e-03 -4.20490541e-02
      -3.72507703e-03 2.29291450e-02 -1.64181888e-02 2.47511151e-03
      -7.00567067e-02 2.46868636e-02 3.76888886e-02 6.06053881e-02
      5.20780608e-02 4.75263074e-02 3.68140079e-02 -6.28890004e-03
      -6.40590489e-02 -6.70296103e-02 -5.08844713e-03 3.78509983e-02
      5.20072542e-02 4.88433056e-02 3.84212434e-02 2.25414764e-02
      -2.27196496e-02 -7.60044828e-02 -3.54017429e-02 -8.72327667e-03
      2.26641707e-02 1.65871289e-02 4.34669619e-03 8.77713691e-03
      1.40512437e-02 -4.04391736e-02 -3.85332890e-02 -2.49783378e-02
      -2.19996180e-02 1.45137971e-02 1.56532954e-02 3.44202779e-02
      1.01266960e-02 1.17425211e-02 -3.55138034e-02 -1.95032116e-02
      -5.64775094e-02 -4.42034341e-02 2.02301126e-02 2.81678122e-02
      3.56863365e-02 3.48816887e-02 2.89139561e-02 -3.22581194e-02
      -6.60617203e-02 -3.49582620e-02 -4.86768782e-02 -2.59252228e-02
      -3.16183940e-02 -6.29213126e-03 3.82434912e-02 5.95073495e-03
      -2.02823691e-02 -3.26320529e-02 -1.42384814e-02 -2.29871236e-02
      -7.75078125e-03 -1.45114493e-03 1.40677653e-02 -1.21199749e-02
      4.00731387e-03 -6.08059652e-02 -1.11741042e-02 1.13397744e-02
      -1.86649635e-02 -3.00960410e-02 -5.19512668e-02 -4.29783352e-02
      -2.60723066e-02 -3.60589363e-02 -6.78247586e-02 -2.38520894e-02
      7.26340637e-02 5.74976532e-03 -2.02606339e-02 -6.70899227e-02
      -6.55427650e-02 -2.59467144e-03 -2.05873959e-02 -5.76639958e-02
      5.26873134e-02 2.30302438e-02 2.77572460e-02 -5.24841198e-05
      -2.93448512e-02 -3.27579416e-02 -3.69986007e-03 -7.36223720e-03
      -8.00803825e-02 1.35828480e-02 8.38715956e-02 -8.44766758e-03
      -4.19038534e-02 -7.73754641e-02 -5.02694882e-02 3.00633069e-02
      -1.24087930e-02 -1.98216215e-02 4.20688763e-02 5.60384765e-02
      3.80093418e-02 1.30041176e-02 -4.55335341e-02 -1.58955026e-02
      1.92117356e-02 -3.52456830e-02 -6.59249425e-02 -2.07637213e-02
      -6.17176946e-03 3.79414391e-03 1.38531597e-02 4.76524983e-05
      -1.62316323e-03 1.12839108e-02 1.03793582e-02 -7.25974292e-02
      -1.25782490e-02 -2.56248023e-02 1.47866760e-03 1.73897240e-02
      1.24204773e-02 2.50391308e-02 8.10542330e-03 1.39790662e-02
      -6.43240213e-02 -7.37733534e-03 4.64931577e-02 2.22223601e-03
      1.09331841e-02 -5.56314085e-03 -1.99898276e-02 7.82850850e-03
      1.30193448e-03 -5.01858294e-02 -8.20449814e-02 1.72884110e-02
      -8.34072009e-03 1.70629807e-02 2.07434539e-02 1.46351932e-02
      6.80543436e-03 2.69709360e-02 -3.08012664e-02 -8.39065909e-02
      -1.04654152e-02 -1.30222822e-02 -2.77744010e-02 9.42294300e-03
      3.18129025e-02 5.99524705e-03 -6.68483274e-03 -8.81615952e-02
      5.27929654e-03 2.95644328e-02 -1.03582526e-02 -3.03569697e-02
      -2.14957055e-02 -2.77669299e-02 -2.39261109e-02 -6.78697377e-02
      -8.52461234e-02 1.68326665e-02 -4.23907489e-03 -7.17384601e-03
      2.33666580e-02 3.68136056e-02 6.38283640e-02 3.90578844e-02
      2.31309850e-02 -3.65155004e-02 -8.54424834e-02 6.67540776e-03
      -1.51958819e-02 1.84657574e-02 2.97920126e-03 1.20924655e-02
      6.11936301e-03 -6.44550100e-02 -5.14697805e-02 -7.22715557e-02
      -2.02740915e-02 -1.01385321e-02 -2.26045102e-02 -7.79246837e-02
      -5.28274886e-02 5.48194535e-02 1.94114316e-02 2.49222908e-02
      -1.41116395e-03 -1.18769296e-02 3.24870981e-02 4.06794213e-02
      -2.32005864e-03 1.21192783e-02 5.02145253e-02 7.94399343e-03
      -1.04949893e-02 -5.96275181e-02 5.70766144e-02 -1.94801465e-02
      -4.90050204e-02 -1.29663363e-01 -1.35095790e-01 2.08093487e-02
      3.03685293e-02 2.63570677e-02 4.79626395e-02 1.88746899e-02
      -1.75164789e-02 2.11354326e-02 -1.30923968e-02 -6.29365668e-02
      4.71862853e-02 2.23411042e-02 -9.73117538e-03 3.41116562e-02
      -1.96336042e-02 1.82789136e-02 3.26411612e-02 1.59517780e-03
      -1.69255491e-02 4.59448155e-03 -1.38420593e-02 -3.37165669e-02
      -1.05737492e-01 5.41329524e-03 -9.06561874e-03 2.17770804e-02
      -1.33605711e-02 -3.22915725e-02 -2.01276392e-02 -1.75029673e-02
      -2.95981709e-02 -1.05319358e-01 -3.78227211e-04 1.45199560e-02
      2.41563357e-02 1.78498887e-02 -1.45754023e-02 -8.72851070e-03
      -2.68180743e-02 -2.93118618e-02 -9.71294101e-03 2.71809846e-02
      1.55513268e-03 2.07443461e-02 8.75384640e-03 -9.36918147e-03
      -3.69489379e-02 -3.18808109e-02 -4.26226370e-02 -1.18701840e-02
      1.77663453e-02 7.99180195e-03 2.89089847e-02 9.02500004e-03
      2.41778679e-02 2.28705350e-02 2.72540492e-03 -5.11437692e-02
      -9.43066701e-02 6.29827678e-02 3.27568837e-02 4.62130234e-02
      -2.15880442e-02 -2.06960216e-02 4.00050506e-02 -4.68962751e-02
      -6.69654533e-02 -6.92925379e-02 5.00700027e-02 -7.53230602e-03
      2.27843653e-02 2.23941412e-02 1.17176985e-02 2.89052445e-03
      -3.08250710e-02 -5.61273433e-02 -2.12689564e-02 9.36583504e-02
      6.02029189e-02 4.28497344e-02 -3.94709185e-02 -7.44799078e-02
      1.73529214e-03 -5.95435090e-02 -7.61326998e-02 -1.22215003e-02
      6.74777851e-02 -7.04877265e-03 -2.88156196e-02 -1.16349161e-01
      -1.28806308e-01 -2.92238612e-02 1.37459589e-02 2.08478030e-02
      8.10714439e-02 -2.10491363e-02 -2.95941643e-02 6.11414947e-03
      7.76781980e-03 -3.31492908e-02 -2.39740452e-03 -1.64551772e-02
      -2.43075900e-02 3.03534251e-02 6.36873692e-02 -3.04767583e-03
      -2.19365228e-02 -1.04337342e-01 -1.16015114e-01 -4.26430814e-02
      1.55754318e-03 7.95168523e-03 1.02298390e-02 2.85010505e-03
      -6.17919862e-03 5.59534431e-02 4.10631932e-02 9.71315242e-03
      2.16654851e-03 -1.01236841e-02 -2.43541859e-02 -3.34627964e-02
      -1.03300074e-02 -1.43603226e-02 2.65688263e-03 2.04117075e-02
      4.32318193e-04 -1.33559387e-02 -2.93771867e-02 -4.18324769e-02
      -4.83832369e-03 -3.37155238e-02 2.18675286e-03 1.99271906e-02
      3.35910693e-02 1.97110195e-02 -5.55342995e-03 -1.66859347e-02
      -4.04456444e-02 -3.17790173e-02 -4.40875115e-03 1.31092989e-03
      6.81738704e-02 7.63406754e-02 6.38997182e-02 2.44176276e-02
      -2.41391873e-03 -2.70873010e-02 -5.69304824e-02 -3.16614769e-02
      2.38973158e-03 8.96117091e-02 8.43682438e-02 4.67836969e-02
      4.67779450e-02 2.50586122e-02 -1.29970210e-02 -5.08725382e-02
      2.46373849e-04 -3.27565148e-02 2.24065799e-02 3.16763297e-02
      1.82875209e-02 2.17646677e-02 -6.65555755e-03 -2.75348760e-02
      -4.40022349e-02 6.27854541e-02 2.51522698e-02 4.16012593e-02
      -5.38861044e-02 -1.01585805e-01 6.06760057e-03 -4.97084390e-03
      -1.21769784e-02 1.10102165e-02 -4.29202579e-02 -1.33534754e-02
      7.36362040e-02 4.79891449e-02 -1.70517212e-03 4.04188670e-02
      3.61672863e-02 5.87602006e-03 -6.66969866e-02 3.47600579e-02
      1.57699846e-02 1.48731414e-02 -3.42249088e-02 -6.15153946e-02
      1.72475986e-02 3.33518125e-02 3.15195546e-02 1.90085042e-02
      -3.98102636e-03 -2.18245629e-02 -2.04216652e-02 -7.50627369e-02
      -7.22452104e-02 6.53836178e-03 2.56833732e-02 1.87800061e-02
      -3.92877944e-02 -7.11105093e-02 -1.47307795e-02 5.43344170e-02
      6.02827296e-02 2.84461975e-02 5.00372052e-02 4.12403904e-02
      7.91496225e-03 -9.13509130e-02 2.73870397e-02 -2.88234074e-02
      -2.75930669e-02 -6.90900013e-02 -1.05875023e-01 -2.83488613e-02
      1.35934912e-02 1.66066270e-02 7.19234198e-02 -1.56709943e-02
      -1.12491138e-02 1.52963288e-02 5.23827188e-02 6.40895357e-03
      1.31487800e-02 2.08644085e-02 2.00926923e-04 1.23085305e-02
      -1.09179504e-01 8.97745695e-03 8.47164169e-02 7.10043982e-02
      3.15286107e-02 3.27023678e-02 4.20210660e-02 8.91798455e-03
      -8.24735761e-02 -9.96911824e-02 -7.74117932e-03 1.17133647e-01
      9.09576267e-02 1.94707531e-02 3.74679714e-02 3.66037637e-02
      2.71666124e-02 -9.41968188e-02 -2.95705535e-02 9.07250214e-03
      6.86746538e-02 4.93552536e-02 1.07456483e-02 9.56438202e-03
      3.81500497e-02 7.41091743e-03 -1.25237377e-02 -1.01439320e-02
      2.44131684e-02 9.11135748e-02 6.92579672e-02 2.78119612e-02
      -1.62737502e-03 1.13943368e-02 -5.15352795e-03 -1.72300506e-02
      -7.18834326e-02 -2.98215449e-02 8.27983469e-02 1.71589684e-02
      -2.80180722e-02 2.69042067e-02 1.04496107e-02 1.55632719e-02
      -5.53034283e-02 1.14849554e-02 4.96806717e-03 3.56882848e-02
      -4.02292460e-02 -7.86345303e-02 1.67567953e-02 8.33983533e-03
      2.41162479e-02 3.72137576e-02 7.12086447e-03 6.11159205e-03
      6.25786558e-02 -3.88209289e-03 -3.77434343e-02 -4.79680533e-03
      -8.84517271e-04 1.40132301e-03 -1.63878815e-03 6.94445893e-02
      3.39907333e-02 4.55858223e-02 -5.69406040e-02 -6.13468923e-02
      6.67380868e-03 1.21170292e-02 3.24306972e-02 5.76234497e-02
      3.20168771e-02 -4.59836088e-02 -4.52942476e-02 -6.71474710e-02
      -8.20164010e-02 3.64432903e-03 1.32267959e-02 -1.54312560e-02
      5.90463467e-02 -3.54916719e-03 -3.24659273e-02 1.06117306e-02
      3.79602164e-02 2.61137895e-02 3.65556334e-03 2.29956931e-03
      -2.70712432e-02 -2.31450628e-02 -6.65447023e-03 -6.64226115e-02
      -8.74376521e-02 -5.48467077e-02 -2.86249239e-02 5.01539744e-02
      3.51960212e-02 -7.18934881e-03 -7.45529076e-03 -1.01746107e-02
      -4.91284654e-02 -1.68936036e-03 4.40914370e-02 5.87117597e-02
      3.15846764e-02 1.95368603e-02 -2.77513135e-02 -4.08994220e-02
      -2.12117564e-02 5.44037437e-03 5.51391467e-02 5.17108403e-02
      2.12109787e-03 -1.18586104e-02 6.99787354e-03 -2.28964705e-02
      -5.68728931e-02 -1.11144511e-02 2.05053780e-02 6.16200492e-02
      8.78531039e-02 5.99576533e-02 1.24850245e-02 2.11712215e-02
      -2.35614330e-02 -3.73982266e-02 -1.77418273e-02 1.25708599e-02
      3.87219749e-02 5.23769781e-02 1.78192575e-02 -7.65887182e-03
      -3.33900534e-04 -2.96325069e-02 -8.00647736e-02 2.05625640e-03
      1.56798102e-02 6.33127913e-02 1.06766813e-01 8.60940740e-02
      1.60238259e-02 2.26135403e-02 -2.15230435e-02 -4.85851839e-02
      -4.31218222e-02 -2.29364652e-02 1.00486642e-02 2.64180452e-02
      7.98923802e-03 1.73427109e-02 2.57965717e-02 -1.55390752e-02
      -2.70955637e-02 3.08696665e-02 2.80551873e-02 -1.67535618e-02
      -6.15099519e-02 -4.75135744e-02 4.67463024e-02 5.17800301e-02
      3.91211994e-02 3.51499133e-02 -3.67131345e-02 -3.40099931e-02
      3.23507376e-02 4.75089177e-02 6.90933391e-02 1.92486998e-02
      2.11345702e-02 -3.38842645e-02 -5.39075024e-02 7.13012740e-03
      -2.69689155e-03 -1.36040375e-02 -3.52303162e-02 -3.63853015e-02
      4.14175913e-02 3.25192027e-02 1.66183300e-02 3.15487720e-02
      1.74643320e-03 -3.06131933e-02 -7.59933144e-02 -5.42223565e-02
      4.45666071e-03 2.52152719e-02 2.49964129e-02 3.67597467e-03
      -4.35511842e-02 -6.18585013e-03 -3.94386202e-02 -6.22862577e-03
      3.89655866e-02 4.91662100e-02 1.16978809e-02 2.17819158e-02
      -3.55438478e-02 -6.44624084e-02 2.83166114e-02 -2.88137402e-02
      -3.95306200e-02 -1.41012995e-02 2.63565723e-02 2.02475768e-02
      -1.41681898e-02 -1.39377816e-02 -8.27980880e-03 -6.57491433e-03
      2.03311304e-03 2.03966815e-03 7.61422366e-02 7.10357204e-02
      4.55060676e-02 -9.13037639e-03 -6.04862384e-02 -2.28493959e-02
      1.20668374e-02 1.66529568e-03 1.56116104e-02 2.67157331e-02
      -3.32579832e-04 -2.19698325e-02 1.44388061e-02 -2.17528790e-02
      -7.60203600e-02 2.93710604e-02 3.56565267e-02 2.76522692e-02
      3.89416441e-02 5.94828092e-02 -7.58255739e-03 -7.32637942e-03
      -3.99753861e-02 -8.06648284e-02 -1.54984389e-02 1.24226715e-02
      1.07865948e-02 3.76285240e-02 1.20379822e-02 1.22145060e-02
      5.39377006e-03 -6.02452457e-02 -2.73402054e-02 7.70894717e-03
      1.85324140e-02 3.43664736e-03 1.10769356e-02 2.29372531e-02
      2.87905075e-02 1.60047933e-02 -5.14104813e-02 -2.95475312e-02
      4.01038071e-03 3.84107232e-02 8.60134512e-03 2.28578579e-02
      7.75655881e-02 -1.37463277e-02 -3.66255417e-02 -5.42538427e-02
      -6.38893396e-02 4.49518189e-02 3.88656519e-02 -2.28591193e-03
      -3.71344052e-02 8.25345982e-03 2.87040826e-02 -3.98291880e-03
      -5.45962621e-03 9.75647010e-03 -1.42642120e-02 5.56380907e-03
      -6.81487396e-02 -4.08081710e-02 1.00430604e-02 2.08629463e-02
      -6.84136339e-03 -1.15710711e-02 -9.43631027e-03 4.57391553e-02
      2.84821671e-02 -5.33574671e-02 -7.08954558e-02 -1.14715137e-02
      3.04667875e-02 5.19827940e-03 2.41000541e-02 6.70262203e-02
      -1.68387983e-02 -4.15522493e-02 -5.95976524e-02 1.13301454e-02
      6.92539513e-02 3.57455499e-02 -1.46904076e-02 -2.60083713e-02
      -5.99402711e-02 -3.27071883e-02 1.21965799e-02 2.08556652e-02
      6.79971129e-02 8.29387903e-02 6.12085834e-02 -1.78372255e-03
      -3.44053991e-02 -4.35743965e-02 -3.53206135e-03 -6.76227361e-02
      -8.28616098e-02 -4.03645299e-02 2.23907530e-02 6.75418898e-02
      2.16758680e-02 2.30478914e-03 -3.93870696e-02 -2.65080202e-02
      -3.60634038e-03 2.91613154e-02 4.19898592e-02 1.38915768e-02
      1.84260290e-02 6.41213777e-03 -3.02736904e-03 -4.07368913e-02
      -1.39270574e-02 1.82652697e-02 2.87544224e-02 3.15553099e-02
      1.02608893e-02 1.94794722e-02 -1.20501162e-03 -4.10483927e-02
      -2.55784262e-02 -2.10754661e-04 3.90702561e-02 1.99836064e-02
      -5.43112727e-03 1.71948411e-02 3.09641268e-02 3.07203513e-02
      -2.60988269e-02 -2.83646099e-02 1.80303995e-02 2.00533513e-02
      4.87341993e-02 2.35958602e-02 2.27198545e-02 1.95130911e-02
      1.15298377e-02 -1.34051861e-02 -2.94302199e-02 5.52520454e-02
      3.42803895e-02 3.92935053e-02 -1.73098338e-03 3.34160365e-02
      5.58214076e-02 2.76702531e-02 -2.16362765e-03 -1.12480158e-02
      -3.88193168e-02 -1.65985171e-02 -6.79879710e-02 -3.85659859e-02
      2.32296940e-02 6.99529350e-02 4.23905812e-02 -1.84045668e-04
      -2.69933287e-02 7.57972617e-03 -7.85679463e-03 -5.11108525e-02
      -8.56404826e-02 -2.28498541e-02 4.11150753e-02 3.59544940e-02
      3.03870440e-02 3.38618681e-02 8.48520140e-04 2.64919689e-03
      -7.31859123e-03 -1.13347862e-02 5.46589717e-02 5.49224354e-02
      1.61128361e-02 -3.98200145e-03 -1.61888860e-02 1.11348480e-02
      -2.84960819e-03 2.20014655e-04 -4.12739106e-02 1.41797168e-02
      3.75269949e-02 2.56864484e-02 -3.39606847e-03 -3.25321965e-02
      1.19508887e-02 -6.04552254e-02 -2.75158398e-02 -5.84331378e-02
      -1.93392988e-02 -1.06372787e-02 3.67085915e-03 1.90507192e-02
      4.04690541e-02 -2.05481332e-03 -7.23435581e-02 7.07407156e-03
      2.02367399e-02 -1.25480001e-03 -1.04626389e-02 -7.11872894e-03
      -8.91621970e-03 1.52093377e-02 -5.96989598e-03 -1.78999044e-02
      -7.41126190e-04 -4.66093533e-02 -5.25273532e-02 1.10991923e-02
      8.88354203e-04 7.44397985e-05 1.05629060e-02 1.35941459e-02
      -4.25409190e-02 4.23015095e-02 4.00486216e-02 4.12399396e-02
      4.72709239e-02 -9.58251860e-03 -8.67906027e-03 2.04260256e-02
      2.30657645e-02 -4.80243377e-02 5.06603085e-02 2.31091492e-02
      1.20565081e-02 -2.39211950e-03 -4.66550793e-03 -2.03313418e-02
      -1.75860187e-03 5.06038107e-02 -2.35791430e-02 1.82018485e-02
      -1.88036449e-02 1.85953807e-02 3.62990759e-02 1.50725944e-02
      -1.32016337e-03 1.24864541e-02 2.29984093e-02 -6.10448932e-03
      7.17607960e-02 5.58959953e-02 2.07813438e-02 3.58517542e-02
      3.09986505e-03 -1.34808635e-02 3.09205465e-02 2.87183486e-02
      -3.41419391e-02 4.99801524e-02 1.18738478e-02 2.59002615e-02
      5.62924780e-02 2.26638727e-02 -7.98023120e-03 3.41462493e-02
      2.69673089e-03 -4.23819683e-02 -2.03454942e-02 -3.90635058e-02
      2.68615633e-02 3.35464813e-02 3.95984203e-03 8.46297946e-03
      -6.14398904e-03 2.95044445e-02 1.15881255e-02 -1.06635252e-02
      -6.27401248e-02 -4.21273857e-02 3.85637246e-02 2.28681155e-02
      2.44412129e-03 -3.51769035e-03 -1.03560854e-02 -4.26904783e-02
      -4.58232407e-03 -4.25400920e-02 -4.63634497e-03 6.07699826e-02
      7.05066556e-03 1.13790696e-02 6.99600345e-03 5.81316240e-02
      4.73639444e-02 -3.17950384e-03 -5.79298325e-02 -4.54963259e-02
      9.31978151e-02 4.65239920e-02 4.62152250e-02 7.31728747e-02
      8.00643303e-03 -2.12686602e-02 -4.87497896e-02 -7.43570179e-02
      8.57705716e-04 9.42124799e-02 2.15379857e-02 -4.26310208e-03
      -1.47673134e-02 -3.70008382e-03 -2.02172045e-02 1.56705137e-02
      -4.46832879e-03 3.53080295e-02 6.62206039e-02 3.26844938e-02
      5.66552673e-03 -1.81644298e-02 1.86834559e-02 -7.47202039e-02
      -1.14072599e-01 -8.33151788e-02 2.32877899e-02 6.59327582e-02
      1.36719877e-02 2.85345539e-02 5.79077005e-02 -9.07937996e-03
      -3.79009396e-02 -4.70354930e-02 -1.64001677e-02 2.87102722e-02
      3.82524915e-02 3.55374366e-02 2.83212271e-02 6.41836412e-03
      -6.24237699e-04 -4.96477215e-03 3.76568101e-02 1.33713661e-02
      9.15302150e-03 4.68920134e-02 3.06516085e-02 8.86785705e-03
      -1.65405534e-02 9.89585416e-04 3.98381427e-03 2.76207794e-02
      5.98683860e-03 4.61009815e-02 6.40732050e-02 1.97271947e-02
      -1.30740460e-02 -2.00730618e-02 -1.39289368e-02 3.25484797e-02
      -2.18816474e-03 -3.23779583e-02 1.74822507e-03 3.58655415e-02
      3.24829035e-02 1.07162856e-02 -3.75705259e-03 -1.83696114e-03
      1.36321262e-02 -2.61193849e-02 -3.19625102e-02 1.73937511e-02
      3.44021618e-02 5.14898030e-03 -2.67716516e-02 -6.55578915e-03
      1.67527404e-02 -4.07789089e-03 4.78731934e-04 -2.97166668e-02
      1.00125466e-02 4.61556539e-02 -5.26492577e-03 -2.39669234e-02
      -1.43090012e-02 1.11479819e-01 6.20644279e-02 7.16318469e-03
      -1.13088049e-01 -8.26454610e-02 6.97185621e-02 2.28306446e-02
      1.93747506e-02 7.52654374e-02 3.91860455e-02 9.62655712e-03
      -2.88870744e-02 -4.62526381e-02 -4.53119837e-02 -1.62502588e-03
      -2.70128530e-02 -2.15294305e-02 -8.09491146e-03 9.58302468e-02
      3.57744135e-02 2.96747368e-02 -1.18412800e-01 -9.53446627e-02
      -9.62959416e-03 1.77212264e-02 1.52292810e-02 7.96943977e-02</_></support_vectors>
  <uncompressed_sv_total>29</uncompressed_sv_total>
  <uncompressed_support_vectors>
    <_>
      2.10581392e-01 2.77573854e-01 9.53338966e-02 1.05730549e-01
      6.44730628e-02 1.92376629e-01 2.73612916e-01 9.41467583e-02
      1.09669067e-01 9.82986614e-02 7.75778517e-02 5.93337230e-02
      6.91921860e-02 1.32610321e-01 2.95406520e-01 2.95406520e-01
      1.81108281e-01 8.03271383e-02 9.17296186e-02 1.38401002e-01
      7.13284537e-02 8.03304985e-02 8.23752657e-02 1.19470701e-01
      1.89362854e-01 1.31949455e-01 1.23087108e-01 6.08394705e-02
      1.10815555e-01 1.02859668e-01 1.18736699e-01 2.95406520e-01
      2.95406520e-01 2.95406520e-01 1.60589606e-01 7.92393535e-02
      4.02981304e-02 3.84238511e-02 6.85245320e-02 6.15943596e-02
      1.38983384e-01 2.97844619e-01 2.97844619e-01 1.45693973e-01
      3.66630554e-02 1.13446288e-01 6.37576878e-02 1.48868337e-01
      8.76971111e-02 1.06769763e-01 1.26924366e-01 9.97665897e-02
      5.66575937e-02 1.20402388e-01 3.52596715e-02 8.18111748e-02
      1.05048411e-01 1.86361387e-01 2.97844619e-01 2.97844619e-01
      2.97844619e-01 1.06244653e-01 3.15002464e-02 1.40806228e-01
      2.32213318e-01 1.93352684e-01 1.71271622e-01 2.97844619e-01
      2.44069472e-01 1.01053715e-01 7.95760900e-02 1.63571492e-01
      1.89653635e-01 1.12111226e-01 1.47969946e-01 1.30936444e-01
      1.11139499e-01 7.55142942e-02 6.10824525e-02 9.93743017e-02
      2.21258208e-01 1.45405129e-01 1.15623936e-01 1.03457309e-01
      1.09489076e-01 9.02860984e-02 1.53560981e-01 1.10692523e-01
      1.80347130e-01 2.45084286e-01 2.45084286e-01 2.45084286e-01
      2.45084286e-01 1.83478743e-01 1.41063049e-01 4.54873927e-02
      6.02872185e-02 1.42008662e-01 2.45084286e-01 2.45084286e-01
      2.45084286e-01 2.45084286e-01 1.70679659e-01 6.79609478e-02
      9.95304212e-02 9.25479904e-02 1.52947515e-01 2.45084286e-01
      1.80979744e-01 1.77887037e-01 6.00755773e-02 5.98182566e-02
      4.68731076e-02 5.82468398e-02 5.57369776e-02 1.62893042e-01
      2.27541745e-01 2.14252502e-01 2.55566597e-01 1.36731774e-01
      1.52896330e-01 2.55566597e-01 1.71184808e-01 8.83129612e-02
      1.11823753e-01 1.71651632e-01 2.47402802e-01 1.95099249e-01
      5.18440753e-02 4.00888026e-02 4.54497859e-02 7.81516060e-02
      7.30047598e-02 2.55566597e-01 2.55566597e-01 2.55566597e-01
      2.55566597e-01 1.03047624e-01 1.06499918e-01 9.73649845e-02
      7.73289651e-02 8.04478824e-02 2.31611267e-01 2.55566597e-01
      1.01668507e-01 2.40173340e-01 1.96371377e-01 2.40173340e-01
      2.40173340e-01 1.81303546e-01 5.21216467e-02 3.56006324e-02
      4.12600189e-02 1.20265737e-01 2.40173340e-01 2.40173340e-01
      2.23797634e-01 2.40173340e-01 9.97487530e-02 5.06635569e-02
      5.79637140e-02 8.26226845e-02 1.95932508e-01 2.40173340e-01
      1.88245758e-01 1.57686859e-01 1.26134560e-01 4.08938490e-02
      5.40546738e-02 1.33584201e-01 1.93772450e-01 1.97381139e-01
      1.59867853e-01 2.40173340e-01 1.87516406e-01 1.11915559e-01
      5.89828342e-02 7.31521398e-02 1.48941711e-01 2.08853617e-01
      2.26224706e-01 2.26224706e-01 2.26224706e-01 1.46669641e-01
      7.39828944e-02 3.40314396e-02 7.74539188e-02 1.23770110e-01
      1.83255047e-01 2.26224706e-01 2.26224706e-01 1.61131054e-01
      8.38495642e-02 6.98200986e-02 4.70039174e-02 8.94244462e-02
      1.50238886e-01 2.03868762e-01 1.83004230e-01 1.75947025e-01
      2.20874712e-01 2.00997829e-01 1.60215706e-01 1.06061600e-01
      1.72725752e-01 2.26224706e-01 2.26224706e-01 1.27238378e-01
      1.43669814e-01 1.11102208e-01 1.15461059e-01 1.92893907e-01
      1.63513526e-01 1.51007205e-01 2.20992863e-01 1.60514981e-01
      2.44225860e-01 1.46330580e-01 4.09347862e-02 6.65197074e-02
      7.53070861e-02 1.32134929e-01 1.14156738e-01 2.88402826e-01
      2.88402826e-01 2.88402826e-01 1.91721052e-01 5.32902963e-02
      8.99058431e-02 9.80867147e-02 9.42619294e-02 1.04369693e-01
      2.88402826e-01 2.88402826e-01 1.87002584e-01 1.68986902e-01
      4.26819660e-02 6.03939034e-02 3.26685384e-02 4.93162349e-02
      5.94282262e-02 1.14923023e-01 2.88402826e-01 2.42344469e-01
      1.37852415e-01 5.37360683e-02 5.66526987e-02 8.57945234e-02
      6.26246631e-02 6.38687760e-02 1.61420241e-01 2.88402826e-01
      2.34863326e-01 1.39352262e-01 1.18084282e-01 8.41275454e-02
      8.84524882e-02 9.89342853e-02 8.42160657e-02 2.06242561e-01
      2.34863326e-01 2.34863326e-01 1.35657653e-01 2.34863326e-01
      1.68874294e-01 1.49585471e-01 2.03233689e-01 1.36012197e-01
      1.78522125e-01 2.34863326e-01 2.08502725e-01 6.48950711e-02
      8.27171579e-02 7.69771039e-02 1.27636194e-01 1.22269511e-01
      8.96695182e-02 1.65372863e-01 2.25463912e-01 2.34863326e-01
      1.02241829e-01 1.74568310e-01 1.06886201e-01 1.51949883e-01
      2.01820374e-01 1.43854231e-01 1.67611092e-01 2.34863326e-01
      2.14593694e-01 1.15496650e-01 1.52402282e-01 2.14593694e-01
      2.14593694e-01 2.14593694e-01 1.86083332e-01 1.56053677e-01
      2.11313620e-01 1.16607502e-01 1.96038991e-01 1.18069135e-01
      1.54884592e-01 2.06995308e-01 2.01425835e-01 1.69057861e-01
      1.23711810e-01 1.40796810e-01 2.14593694e-01 1.34229168e-01
      1.63378760e-01 1.04446687e-01 1.52399093e-01 1.50184095e-01
      1.11334383e-01 1.24313928e-01 2.14593694e-01 1.38598755e-01
      1.58226490e-01 1.03627197e-01 8.09689090e-02 1.49426192e-01
      2.14593694e-01 2.07294926e-01 1.13533698e-01 1.70991272e-01
      1.85196459e-01 1.32001787e-01 8.38785172e-02 3.12479418e-02
      3.00205424e-02 3.55021954e-02 4.36429009e-02 5.46568669e-02
      2.51747191e-01 2.51747191e-01 2.51747191e-01 7.00136870e-02
      3.06755193e-02 4.76396270e-02 5.15409745e-02 8.54323879e-02
      1.13439552e-01 2.06809610e-01 2.51747191e-01 2.51747191e-01
      2.30235413e-01 4.76005450e-02 6.62172809e-02 7.47352242e-02
      9.39811841e-02 1.11637004e-01 2.51747191e-01 2.51747191e-01
      2.51747191e-01 1.79508984e-01 1.17574722e-01 9.00768489e-02
      2.44420320e-01 2.45675310e-01 1.60629436e-01 2.51747191e-01
      2.09133819e-01 1.76335603e-01 5.56942746e-02 3.83997299e-02
      5.01504801e-02 1.50208190e-01 2.34949499e-01 2.69193321e-01
      1.45984828e-01 8.82823169e-02 7.27919191e-02 5.42474166e-02
      5.70898727e-02 4.85654846e-02 1.35731831e-01 1.83323070e-01
      1.81453496e-01 1.22235864e-01 1.84661344e-01 1.86670735e-01
      1.05010405e-01 9.67672393e-02 1.02305822e-01 3.13710123e-01
      3.13710123e-01 2.43471190e-01 1.12059973e-01 5.52229546e-02
      5.82285710e-02 4.33152504e-02 6.17767945e-02 1.47775203e-01
      3.13710123e-01 3.13710123e-01 1.41893327e-01 4.95238304e-02
      2.20308810e-01 1.58354029e-01 1.19880222e-01 8.36208090e-02
      8.33990350e-02 6.07121401e-02 1.04101755e-01 2.27376327e-01
      2.27376327e-01 1.07069060e-01 8.99348930e-02 7.12167546e-02
      9.14829895e-02 1.31482497e-01 2.27376327e-01 2.27376327e-01
      2.27376327e-01 1.91243798e-01 1.82483986e-01 1.41557708e-01
      1.76238179e-01 1.21299528e-01 2.01422721e-01 2.27376327e-01
      2.27376327e-01 1.93484023e-01 1.25439525e-01 1.30038425e-01
      8.32058862e-02 1.68809697e-01 1.05422497e-01 1.04066372e-01
      2.27376327e-01 2.27376327e-01 2.08149046e-01 1.36616826e-01
      2.27509782e-01 1.71203911e-01 1.27924353e-01 4.87050302e-02
      6.85113296e-02 1.44553900e-01 1.33327439e-01 1.45782620e-01
      2.27509782e-01 1.48095667e-01 1.81023553e-01 1.65124789e-01
      1.37867406e-01 1.15175247e-01 2.27509782e-01 2.08659559e-01
      1.00336194e-01 1.77486584e-01 1.63801387e-01 9.09688771e-02
      9.28211957e-02 7.23098293e-02 1.01808831e-01 2.27509782e-01
      2.21338034e-01 2.18210712e-01 2.27509782e-01 2.27509782e-01
      2.27509782e-01 2.27509782e-01 1.41036600e-01 1.01734698e-01
      5.93317449e-02 1.01894252e-01 1.40709862e-01 2.27509782e-01
      5.08964062e-02 4.77170721e-02 6.43983260e-02 1.51965469e-01
      2.04964250e-01 2.52723038e-01 2.52723038e-01 4.07437235e-02
      3.35760340e-02 5.01354598e-02 2.24133879e-02 2.74939705e-02
      1.55625254e-01 2.52723038e-01 2.52723038e-01 2.16333643e-01
      4.43083867e-02 2.94836629e-02 2.52723038e-01 1.74144715e-01
      1.58548906e-01 1.99050814e-01 2.20807612e-01 9.25848633e-02
      1.01730905e-01 7.79298693e-02 2.29957089e-01 2.52723038e-01
      1.10492311e-01 1.34661421e-01 2.52723038e-01 2.52723038e-01
      1.97123170e-01 1.24425277e-01 9.22960192e-02 1.30681500e-01
      1.16804682e-01 6.10013604e-02 1.02220103e-01 1.57948822e-01
      2.30357692e-01 2.30357692e-01 1.49598509e-01 1.46709859e-01
      8.92689377e-02 8.11161175e-02 4.47687805e-02 1.55193925e-01
      1.01920918e-01 5.44275194e-02 1.64940998e-01 2.04256922e-01
      1.04244627e-01 6.62575364e-02 2.30357692e-01 2.12414816e-01
      1.70176476e-01 2.30357692e-01 2.30357692e-01 2.30357692e-01
      1.87655225e-01 2.30357692e-01 2.07389042e-01 2.30357692e-01
      1.31371588e-01 9.11586806e-02 8.54736269e-02 6.48902506e-02
      1.48975059e-01 1.71439692e-01 2.30357692e-01 2.10485756e-01
      1.67479023e-01 7.73909912e-02 7.18127638e-02 4.94415499e-02
      5.03481701e-02 1.82878867e-01 1.44707128e-01 2.15030417e-01
      2.54974276e-01 2.54974276e-01 2.03410774e-01 2.28360817e-01
      1.02654748e-01 4.33583334e-02 1.10179260e-02 7.17663318e-02
      2.00545028e-01 2.54974276e-01 1.91232055e-01 2.54974276e-01
      1.35631487e-01 5.04098535e-02 2.52435356e-02 6.73466921e-02
      9.50081870e-02 1.21698171e-01 2.54974276e-01 2.54974276e-01
      2.54974276e-01 2.54974276e-01 8.63956437e-02 9.66204330e-03
      8.55469797e-03 4.20772173e-02 1.42114326e-01 2.54974276e-01
      2.61618525e-01 2.17223927e-01 1.69590563e-01 7.09633157e-02
      4.85347025e-02 1.61767919e-02 7.63375908e-02 1.01991162e-01
      2.61618525e-01 2.61618525e-01 1.87387899e-01 1.72264829e-01
      8.73092487e-02 9.31331217e-02 8.56184810e-02 9.81358588e-02
      8.02262500e-02 2.09730089e-01 2.61618525e-01 2.61618525e-01
      2.61618525e-01 4.18762155e-02 1.24780890e-02 2.36497186e-02
      4.69030812e-02 6.03762455e-02 1.85402662e-01 2.61618525e-01
      2.61618525e-01 2.61618525e-01 3.66076492e-02 3.24986391e-02
      6.38677105e-02 7.95967802e-02 9.56236869e-02 2.61618525e-01
      2.26784676e-01 1.44443631e-01 9.40097123e-02 5.41657098e-02
      8.78425464e-02 1.07675053e-01 8.69157016e-02 1.72725767e-01
      2.59108067e-01 2.19915897e-01 8.29617083e-02 1.18819391e-02
      1.51595734e-02 3.86458486e-02 5.05514406e-02 5.11034243e-02
      2.21879900e-01 2.59108067e-01 2.59108067e-01 1.38672248e-01
      1.30172968e-01 8.29157457e-02 1.68060243e-01 2.09157571e-01
      1.85699359e-01 2.59108067e-01 2.59108067e-01 1.61366493e-01
      1.06629938e-01 5.22632971e-02 5.15819751e-02 1.68947995e-01
      1.94840863e-01 1.27847955e-01 2.59108067e-01 2.59108067e-01
      2.32462645e-01 2.47848138e-01 1.58875644e-01 8.90728608e-02
      5.71470074e-02 7.30320141e-02 6.60232082e-02 9.48064178e-02
      1.31285161e-01 2.57373899e-01 2.57373899e-01 2.57373899e-01
      9.23388153e-02 1.62289124e-02 1.64186154e-02 2.64918078e-02
      9.38228518e-02 1.23926647e-01 2.28211626e-01 1.13724850e-01
      9.67119560e-02 1.16193168e-01 2.11464047e-01 2.44936839e-01
      1.03056006e-01 1.39707148e-01 1.69807434e-01 2.57373899e-01
      2.57373899e-01 1.87132418e-01 9.87008885e-02 1.09636649e-01
      6.12314232e-02 1.10680036e-01 2.57373899e-01 2.32164487e-01
      2.57296264e-01 2.57296264e-01 2.57296264e-01 8.08245018e-02
      2.62427684e-02 4.03237566e-02 4.74246703e-02 3.55246402e-02
      8.57567489e-02 2.57296264e-01 2.57296264e-01 2.57296264e-01
      1.21545158e-01 1.16531484e-01 1.19838595e-01 1.33780763e-01
      8.11507627e-02 2.57296264e-01 2.57296264e-01 1.98649168e-01
      1.28951117e-01 8.22780058e-02 7.41245598e-02 3.07955220e-02
      8.37916434e-02 1.53358012e-01 1.69511616e-01 2.57296264e-01
      1.08920768e-01 9.35892612e-02 1.35782883e-01 1.43322200e-01
      1.35453790e-01 1.88601479e-01 1.10413834e-01 2.45805472e-01
      1.02202460e-01 7.44248405e-02 2.06267580e-01 2.31683761e-01
      2.34817177e-01 2.34817177e-01 1.65525556e-01 1.06478147e-01
      2.34817177e-01 7.77327567e-02 9.97801796e-02 1.23173654e-01
      1.43219784e-01 1.92976028e-01 2.34817177e-01 1.12518840e-01
      1.14526987e-01 1.50970161e-01 1.35994196e-01 6.49254173e-02
      1.53620273e-01 2.34817177e-01 2.34817177e-01 2.34817177e-01
      2.34817177e-01 6.00171424e-02 1.15605846e-01 7.44351447e-02
      6.22389540e-02 1.19584478e-01 1.91076115e-01 2.34817177e-01
      2.34817177e-01 1.68595076e-01 4.67218272e-02 6.09860569e-02
      1.97371542e-01 4.41470072e-02 4.38898131e-02 9.92624536e-02
      1.90201744e-01 2.44901344e-01 2.11781889e-01 1.89111367e-01
      1.81904927e-01 2.44901344e-01 1.25161737e-01 4.48866077e-02
      1.06712721e-01 1.69509813e-01 8.81500915e-02 1.23897791e-01
      2.42203474e-01 2.44901344e-01 2.27968350e-01 4.77401204e-02
      3.93688604e-02 7.89396614e-02 1.19301155e-01 2.15976313e-01
      2.15519249e-01 2.41674095e-01 2.44901344e-01 2.44901344e-01
      1.67060360e-01 3.89885418e-02 6.68740198e-02 8.25734213e-02
      8.44658837e-02 6.37753308e-02 1.25927359e-01 2.44901344e-01
      2.96127409e-01 1.41604736e-01 1.78478584e-02 5.43000028e-02
      1.00393228e-01 1.73792616e-02 6.09905943e-02 1.34070367e-01
      2.77902842e-01 2.96127409e-01 2.60235697e-01 4.13770117e-02
      6.54086843e-02 6.48396537e-02 5.28539717e-02 1.04264803e-01
      9.74055827e-02 2.96127409e-01 2.96127409e-01 2.58876115e-01
      1.46790007e-02 1.44855296e-02 2.61962637e-02 2.68904269e-02
      2.56017763e-02 7.06577078e-02 2.96127409e-01 2.96127409e-01
      2.96127409e-01 2.25277767e-02 2.95783915e-02 4.33434583e-02
      4.74215150e-02 5.72417229e-02 5.54481819e-02 2.51288980e-01
      2.41684839e-01 2.23147348e-01 7.28454813e-02 2.24507794e-01
      2.41684839e-01 2.17292026e-01 1.42247364e-01 6.44006729e-02
      2.29616582e-01 1.55111730e-01 1.19212255e-01 1.36822566e-01
      2.12461621e-01 2.41684839e-01 2.41684839e-01 1.01016946e-01
      6.93347678e-02 1.07964687e-01 2.41684839e-01 2.41684839e-01
      5.75880520e-02 9.11735222e-02 7.99872056e-02 2.85251755e-02
      6.25183806e-02 7.58910477e-02 2.32581079e-01 2.41684839e-01
      1.34515509e-01 1.63390651e-01 1.04079604e-01 6.61713779e-02
      4.14042026e-02 6.32782206e-02 1.52784333e-01 2.41684839e-01
      2.36918524e-01 5.24084307e-02 4.01893184e-02 7.14202002e-02
      1.60207465e-01 1.50780737e-01 1.35832459e-01 1.96008503e-01
      2.36918524e-01 2.36918524e-01 2.11700872e-01 1.01060838e-01
      4.39044088e-02 1.00256599e-01 9.79996845e-02 6.92664757e-02
      1.42287895e-01 2.36918524e-01 1.64201230e-01 8.56500491e-02
      1.08275227e-01 9.17107314e-02 1.40082702e-01 1.51506364e-01
      1.67748615e-01 2.21292481e-01 2.36918524e-01 2.36918524e-01
      1.84064269e-01 2.02811107e-01 1.06725395e-01 1.50041550e-01
      1.24505803e-01 1.83472142e-01 2.36918524e-01 2.36918524e-01
      2.48359352e-01 2.48359352e-01 7.98221454e-02 2.31179651e-02
      3.65286916e-02 7.17377886e-02 5.68927303e-02 1.03494354e-01
      2.04286113e-01 2.48359352e-01 2.43119031e-01 4.62774634e-02
      6.58188611e-02 1.01640113e-01 1.25724256e-01 1.37450144e-01
      9.70302299e-02 1.67208284e-01 2.48359352e-01 2.48359352e-01
      1.44548237e-01 1.32550120e-01 1.11976616e-01 7.50686526e-02
      1.01733878e-01 1.72402814e-01 2.21338347e-01 2.48359352e-01
      2.48359352e-01 2.32489511e-01 2.16935471e-01 1.13428071e-01
      6.95917383e-02 9.54813361e-02 1.15622871e-01 2.48359352e-01
      2.50641704e-01 1.14895813e-01 5.33360317e-02 4.17301729e-02
      6.68263137e-02 4.90995012e-02 9.25457180e-02 6.97742105e-02
      1.95779070e-01 2.55423218e-01 1.57948509e-01 1.33689001e-01
      3.56425904e-02 3.19757834e-02 5.07890023e-02 9.38912556e-02
      1.33494660e-01 2.47494891e-01 2.72063643e-01 2.72063643e-01
      2.39539459e-01 1.01247132e-01 4.56352010e-02 3.23523507e-02
      9.76826921e-02 8.22940320e-02 2.42091715e-01 2.72063643e-01
      2.72063643e-01 2.67038554e-01 4.78908308e-02 2.54955627e-02
      5.93648553e-02 1.72247022e-01 1.84358627e-01 2.72063643e-01
      1.18443139e-01 7.94575885e-02 5.66792600e-02 5.85014708e-02
      6.33148104e-02 1.26306280e-01 1.96122706e-01 1.82887226e-01
      1.44536719e-01 2.21147254e-01 1.60429031e-01 1.75326243e-01
      1.35514349e-01 5.39709479e-02 9.19808447e-02 1.70558378e-01
      2.21147254e-01 2.06979111e-01 2.21147254e-01 8.33580270e-02
      4.80895936e-02 3.54845524e-02 6.00859150e-02 1.17169403e-01
      2.06501558e-01 2.21147254e-01 2.21147254e-01 2.21147254e-01
      1.54929161e-01 2.21147254e-01 2.21147254e-01 1.94645599e-01
      2.14309648e-01 2.21147254e-01 2.16424733e-01 1.85977355e-01
      1.55402943e-01 2.82466173e-01 2.65419334e-01 1.45839229e-01
      3.83455455e-02 2.96129398e-02 4.93869856e-02 9.66752544e-02
      9.72182676e-02 2.20055103e-01 2.82466173e-01 2.82466173e-01
      8.82431120e-02 3.40769440e-02 1.54450443e-02 2.97062602e-02
      5.81410192e-02 9.19458121e-02 1.15489297e-01 2.82466173e-01
      2.82466173e-01 2.82466173e-01 2.04814345e-01 1.41146898e-01
      7.30960071e-02 6.30227774e-02 5.12928292e-02 1.75707564e-01
      2.82466173e-01 2.82466173e-01 1.15769409e-01 7.55602047e-02
      3.52554098e-02 4.13010269e-02 5.50556332e-02 7.73436949e-02
      2.71913618e-01 2.71913618e-01 2.71913618e-01 7.73180872e-02
      2.84108818e-02 1.30877048e-02 4.26136553e-02 6.91674948e-02
      1.09421588e-01 2.71913618e-01 2.71913618e-01 2.71913618e-01
      7.17369020e-02 2.92651281e-02 6.98875561e-02 1.61524132e-01
      1.00751966e-01 1.90785781e-01 1.71727628e-01 2.71913618e-01
      1.86403126e-01 6.09278940e-02 4.07696441e-02 4.37037647e-02
      7.29039609e-02 9.98875350e-02 1.03241667e-01 1.28947392e-01
      2.40472183e-01 2.71913618e-01 9.54571366e-02 8.11911300e-02
      2.04265222e-01 1.83280557e-01 1.28074005e-01 1.31834105e-01
      2.34488234e-01 7.64561221e-02 7.87234306e-02 2.39895079e-02
      3.47459354e-02 5.58775812e-02 1.46925330e-01 1.97563156e-01
      2.34488234e-01 1.69406697e-01 5.39944582e-02 1.10032164e-01
      1.55621573e-01 2.34365746e-01 2.34488234e-01 2.34488234e-01
      2.18740702e-01 1.54321358e-01 2.34488234e-01 1.47546619e-01
      6.43592328e-02 4.54835631e-02 4.79187369e-02 5.87232821e-02
      1.15090184e-01 2.23939821e-01 2.34488234e-01 1.98517144e-01
      1.14340179e-01 8.18955526e-02 6.47484362e-02 1.52736932e-01
      2.34488234e-01 2.34488234e-01 2.16489792e-01 2.34488234e-01
      4.01795805e-02 6.95557296e-02 1.13812834e-01 1.70152217e-01
      2.43665829e-01 2.49747202e-01 1.78651541e-01 2.38097608e-01
      1.10128418e-01 1.97074071e-01 1.22026786e-01 9.19226781e-02
      1.00496285e-01 9.39277411e-02 7.02651292e-02 7.54830539e-02
      2.22994715e-01 2.01247483e-01 1.31378531e-01 1.08769521e-01
      4.98048402e-02 5.24658039e-02 1.19672254e-01 2.49747202e-01
      2.15165153e-01 2.49747202e-01 2.49747202e-01 2.49747202e-01
      1.64742798e-01 5.08299656e-02 1.09654240e-01 6.87206984e-02
      7.64755383e-02 1.52314112e-01 2.49747202e-01 2.49747202e-01
      2.51328647e-01 1.53035253e-01 6.61499947e-02 5.69705442e-02
      4.00164574e-02 4.80355285e-02 7.43908510e-02 9.31715593e-02
      1.98533759e-01 2.83607036e-01 2.13633478e-01 8.05591717e-02
      4.22883183e-02 7.07916990e-02 1.63732186e-01 1.21909313e-01
      1.09969199e-01 2.55413294e-01 2.83607036e-01 2.83607036e-01
      1.09587692e-01 1.31812289e-01 4.42634895e-02 2.92845704e-02
      6.52880594e-02 1.74387097e-01 2.83607036e-01 2.83607036e-01
      2.83607036e-01 1.41206831e-01 6.84975535e-02 4.56462502e-02
      5.50707579e-02 5.33308238e-02 7.06723109e-02 2.83607036e-01</_>
    <_>
      1.41204670e-01 1.82387605e-01 1.57712877e-01 1.93028510e-01
      2.14215323e-01 1.19677514e-01 1.29535809e-01 7.55213946e-02
      9.77639407e-02 2.07484081e-01 1.71095878e-01 1.16132885e-01
      1.45037428e-01 1.86316967e-01 1.28461272e-01 1.60549119e-01
      1.06591932e-01 1.54611155e-01 1.83117822e-01 1.93174452e-01
      1.73705310e-01 1.57350019e-01 1.24514922e-01 9.36889499e-02
      2.13655069e-01 1.76089406e-01 1.69410780e-01 1.90896153e-01
      1.43098950e-01 1.58739060e-01 1.74895108e-01 1.80351421e-01
      1.81246251e-01 2.14215323e-01 2.14215323e-01 2.14215323e-01
      2.01099485e-01 1.07463606e-01 1.21699668e-01 1.29666179e-01
      1.52636409e-01 1.11491561e-01 1.22104272e-01 1.86801255e-01
      1.58388332e-01 1.21849738e-01 6.86744675e-02 1.22081466e-01
      1.23714596e-01 1.59189790e-01 1.47468552e-01 2.38198072e-01
      2.38198072e-01 1.79941133e-01 1.30084768e-01 7.97306076e-02
      1.08963251e-01 1.37968168e-01 1.76608175e-01 1.77408844e-01
      2.32094556e-01 2.38198072e-01 2.38198072e-01 1.05033778e-01
      8.02384019e-02 1.15115196e-01 7.37040639e-02 1.33936241e-01
      2.28398740e-01 2.38198072e-01 2.38198072e-01 2.38198072e-01
      1.54079376e-02 2.20411308e-02 1.58579927e-02 8.67398009e-02
      2.01390296e-01 1.51732773e-01 9.41225290e-02 1.08458154e-01
      4.03660350e-02 9.47052985e-03 1.44708613e-02 1.22490954e-02
      2.02275857e-01 4.35897410e-01 4.35897410e-01 3.38549800e-02
      3.41038220e-02 1.35849109e-02 3.19214240e-02 2.74488106e-02
      2.65995804e-02 5.46679534e-02 1.70284301e-01 1.38102978e-01
      9.73129496e-02 1.00607231e-01 7.21869543e-02 2.13745330e-02
      2.03960594e-02 2.19650827e-02 1.13943495e-01 4.35897410e-01
      4.35897410e-01 3.11613027e-02 5.23529053e-02 3.22429165e-02
      1.13469020e-01 1.78055853e-01 1.22926511e-01 1.55166686e-01
      9.61406007e-02 9.08414796e-02 1.78016290e-01 1.78950116e-01
      1.34605870e-01 1.42427549e-01 1.47058517e-01 1.34940818e-01
      1.93232238e-01 1.78918391e-01 2.21079379e-01 2.21079379e-01
      2.21079379e-01 1.78035021e-01 1.08121604e-01 1.85089767e-01
      8.18179175e-02 2.21079379e-01 1.67883664e-01 1.45253718e-01
      2.21079379e-01 1.42767727e-01 8.26053470e-02 1.40578985e-01
      1.67633116e-01 1.18970886e-01 2.21079379e-01 2.09353611e-01
      2.21079379e-01 2.21079379e-01 1.50125355e-01 7.07373917e-02
      1.40199408e-01 6.55780956e-02 8.67569149e-02 1.08633123e-01
      2.05455586e-01 2.24010378e-01 2.09923401e-01 2.17255637e-01
      1.80379197e-01 1.62374079e-01 6.75306022e-02 8.59262571e-02
      4.25840504e-02 1.77109852e-01 2.17018425e-01 2.24010378e-01
      2.24010378e-01 2.24010378e-01 1.05819210e-01 7.30804428e-02
      8.44915658e-02 1.07583568e-01 2.20978752e-01 2.24010378e-01
      2.24010378e-01 1.30136877e-01 6.36975989e-02 2.08298475e-01
      1.52930364e-01 9.28489789e-02 1.05512314e-01 1.97389960e-01
      2.04893634e-01 2.24010378e-01 1.45057231e-01 1.58167079e-01
      6.32868037e-02 3.89793552e-02 4.23086509e-02 4.15429398e-02
      1.34793967e-01 1.18997291e-01 7.03735724e-02 7.08474368e-02
      6.75425678e-02 3.34963538e-02 3.12853307e-02 4.27817330e-02
      1.30484968e-01 4.56651270e-01 4.56651270e-01 1.80324093e-02
      3.17165814e-02 3.38809676e-02 9.12323669e-02 7.50209764e-02
      5.22659980e-02 5.54007776e-02 8.77138600e-02 8.66458789e-02
      5.57808392e-02 4.78830114e-02 8.50792006e-02 5.08271717e-02
      5.10084182e-02 4.73182648e-02 1.46910578e-01 4.56651270e-01
      4.56651270e-01 3.51018570e-02 2.03402340e-02 6.10535480e-02
      1.23698145e-01 1.38065159e-01 7.64807612e-02 1.86571091e-01
      1.51905537e-01 1.67634234e-01 1.77505359e-01 9.80635434e-02
      8.59374851e-02 1.30082831e-01 1.33698583e-01 1.02379538e-01
      1.30576074e-01 1.94233596e-01 2.25749895e-01 2.23816887e-01
      1.23214439e-01 1.10984594e-01 1.68367490e-01 1.90702841e-01
      9.87909883e-02 1.55683130e-01 1.52559310e-01 2.25749895e-01
      2.25749895e-01 1.34828344e-01 1.55419514e-01 1.09535962e-01
      2.25749895e-01 1.82123333e-01 1.63780391e-01 1.95815533e-01
      2.25749895e-01 2.25749895e-01 1.62166670e-01 1.96612120e-01
      5.61325327e-02 6.00088201e-02 6.19545728e-02 1.06923446e-01
      2.17813820e-01 2.35312924e-01 2.35312924e-01 1.09564900e-01
      7.55273029e-02 1.14822455e-01 1.15761593e-01 7.15918764e-02
      1.63324192e-01 1.42285973e-01 2.07645610e-01 2.35312924e-01
      1.24769256e-01 1.53738394e-01 6.63851276e-02 1.16125643e-01
      1.04957692e-01 1.99261978e-01 2.35312924e-01 2.35312924e-01
      2.35312924e-01 1.59428462e-01 1.64158881e-01 8.75835717e-02
      5.97451963e-02 8.31232741e-02 1.88109189e-01 1.93652675e-01
      2.35312924e-01 2.35312924e-01 1.97885260e-01 2.35312924e-01
      6.64875135e-02 6.50182143e-02 5.08110225e-02 5.83487414e-02
      8.56617838e-02 9.60001275e-02 6.24163896e-02 4.39420305e-02
      1.02049761e-01 5.23645356e-02 4.54184003e-02 6.41663522e-02
      1.65648431e-01 4.45848376e-01 4.45848376e-01 5.48133478e-02
      2.84384955e-02 9.44957882e-02 5.63889779e-02 5.74704260e-02
      5.32611534e-02 3.73005196e-02 7.43952990e-02 8.70474204e-02
      6.19257800e-02 6.54570237e-02 1.07623212e-01 7.37055913e-02
      6.21512718e-02 9.37584937e-02 1.74396425e-01 4.45848376e-01
      4.45848376e-01 4.32333387e-02 5.72512224e-02 8.19656476e-02
      1.33545130e-01 1.42685696e-01 1.01971008e-01 1.07220210e-01
      1.26812890e-01 1.89027950e-01 1.58513740e-01 1.11550398e-01
      1.30379319e-01 7.15895966e-02 2.31735855e-01 2.26497933e-01
      1.55676931e-01 1.39749259e-01 2.28654161e-01 2.31735855e-01
      1.37128219e-01 8.64816234e-02 1.63754120e-01 1.85770258e-01
      1.53711736e-01 1.30727738e-01 1.59467608e-01 1.85689151e-01
      1.14673801e-01 1.11300223e-01 1.65983230e-01 1.17346525e-01
      2.31735855e-01 2.31735855e-01 2.31735855e-01 1.55337855e-01
      2.02566400e-01 2.13965058e-01 1.44619584e-01 1.52572408e-01
      3.54612060e-02 1.88216612e-01 1.40707910e-01 1.26762792e-01
      1.32926702e-01 2.20640466e-01 2.20640466e-01 1.28880069e-01
      7.59238079e-02 4.72951606e-02 6.75336570e-02 7.96846524e-02
      1.15644097e-01 1.36706084e-01 2.14507267e-01 2.20640466e-01
      1.21657185e-01 1.06196597e-01 5.27966283e-02 2.20640466e-01
      2.20640466e-01 2.10944518e-01 1.34687409e-01 2.17010781e-01
      2.20640466e-01 1.72459915e-01 1.40065491e-01 9.44919139e-02
      1.36709169e-01 2.11779609e-01 1.99913651e-01 1.55344844e-01
      2.20640466e-01 2.20640466e-01 2.20640466e-01 1.76954821e-01
      7.47868568e-02 7.82921165e-02 6.15310930e-02 4.57604825e-02
      8.43071789e-02 6.04686216e-02 5.68169095e-02 5.91176115e-02
      8.14521387e-02 1.16676763e-01 8.28570724e-02 6.80390298e-02
      1.04474127e-01 4.28464949e-01 4.28464949e-01 3.98699082e-02
      6.38474151e-02 1.01743802e-01 8.78384933e-02 1.05145603e-01
      1.00283325e-01 9.93969813e-02 1.21434793e-01 9.97309387e-02
      6.82435036e-02 9.60318223e-02 8.80961269e-02 1.13511361e-01
      1.05186537e-01 4.77443784e-02 1.89001784e-01 4.28464949e-01
      4.28464949e-01 7.47126415e-02 8.00976977e-02 9.29374620e-02
      1.14989698e-01 1.35487124e-01 1.57990232e-01 1.32315665e-01
      1.17171757e-01 1.24674045e-01 6.99025020e-02 7.35901371e-02
      1.22081384e-01 1.29417613e-01 2.22586378e-01 2.23269537e-01
      1.73568428e-01 1.45374179e-01 1.49160311e-01 1.49288192e-01
      1.43893957e-01 2.26055071e-01 1.68865159e-01 1.29082665e-01
      1.96627751e-01 1.24442130e-01 1.59238830e-01 1.62253663e-01
      1.23228163e-01 1.04785234e-01 1.76963240e-01 2.15626910e-01
      1.85191169e-01 1.77780628e-01 1.18603542e-01 2.14737058e-01
      2.26055071e-01 2.26055071e-01 2.26055071e-01 2.26055071e-01
      8.12975764e-02 1.46825224e-01 1.55392796e-01 1.23772882e-01
      1.31687284e-01 1.59248099e-01 1.52398646e-01 1.21452868e-01
      2.11452171e-01 1.41143620e-01 9.72881168e-02 1.50836974e-01
      1.61922038e-01 1.25890419e-01 1.98064074e-01 1.51968628e-01
      1.90559581e-01 1.62635356e-01 1.96368352e-01 1.97008595e-01
      8.62011909e-02 8.79182145e-02 2.09803045e-01 2.13839412e-01
      2.13839412e-01 1.56572923e-01 2.13839412e-01 2.13839412e-01
      2.13839412e-01 1.14442088e-01 1.90110788e-01 1.67093650e-01
      2.10750312e-01 1.67047963e-01 1.26133293e-01 1.74514651e-01
      1.12552561e-01 1.04208216e-01 1.11075118e-01 1.03938617e-01
      1.17784046e-01 1.45751491e-01 1.18895039e-01 1.46936879e-01
      8.55296552e-02 6.69963807e-02 1.05837405e-01 8.96161795e-02
      1.54801205e-01 3.22093934e-01 3.22093934e-01 1.65173560e-01
      1.20158345e-01 4.54087593e-02 1.66938677e-01 2.16701254e-01
      1.34185493e-01 1.54811129e-01 1.51252851e-01 1.87616721e-01
      1.50855407e-01 1.28634363e-01 6.94330633e-02 6.39940277e-02
      1.93944424e-01 1.59712404e-01 1.59076840e-01 3.22093934e-01
      3.22093934e-01 1.80024162e-01 1.43081367e-01 3.32139321e-02
      1.60433948e-01 1.07105628e-01 1.46816865e-01 9.71077010e-02
      1.40289798e-01 1.84647396e-01 1.47230431e-01 1.23546861e-01
      1.43262088e-01 2.20778465e-01 1.19728446e-01 1.06572539e-01
      8.19101632e-02 2.20124483e-01 2.20778465e-01 2.20778465e-01
      2.06647754e-01 2.20778465e-01 1.39593408e-01 1.10761248e-01
      7.44315237e-02 1.91323414e-01 1.56113327e-01 2.07164198e-01
      1.96193084e-01 1.63729325e-01 1.43012077e-01 1.86412603e-01
      1.38395667e-01 7.32745156e-02 1.48912072e-01 1.85581356e-01
      2.20778465e-01 2.20778465e-01 1.65132552e-01 1.79563999e-01
      2.12853923e-01 1.87544480e-01 6.45735413e-02 9.13582444e-02
      1.96891144e-01 2.23301843e-01 2.17135444e-01 1.02139980e-01
      1.90513387e-01 2.23301843e-01 2.23301843e-01 1.62400156e-01
      1.76569581e-01 1.32114604e-01 1.60227105e-01 1.40014872e-01
      8.46519843e-02 1.45689964e-01 1.79404676e-01 1.53751746e-01
      7.58267641e-02 8.33807811e-02 1.61192924e-01 1.65751368e-01
      2.18136460e-01 1.04577139e-01 1.43899947e-01 2.23301843e-01
      2.23301843e-01 2.00572103e-01 9.69855934e-02 1.55156538e-01
      1.88355938e-01 1.55224144e-01 9.91129950e-02 1.72692060e-01
      1.57967240e-01 2.59126276e-01 1.79453015e-01 1.34509742e-01
      9.08317119e-02 1.32915959e-01 9.52886119e-02 7.67726675e-02
      9.30226296e-02 1.04945883e-01 1.82733417e-01 1.36474147e-01
      1.13801047e-01 2.59126276e-01 2.59126276e-01 1.20271921e-01
      5.47582172e-02 8.94645676e-02 1.61720663e-01 1.81305707e-01
      1.88285112e-01 9.42931846e-02 1.19953357e-01 2.59126276e-01
      1.71195567e-01 9.78588611e-02 1.63686261e-01 1.44667670e-01
      8.07687566e-02 1.67498097e-01 1.72702193e-01 2.59126276e-01
      2.59126276e-01 2.40549475e-01 9.57951769e-02 1.80222973e-01
      1.12722866e-01 6.57826662e-02 2.80415174e-02 1.10378981e-01
      1.44169971e-01 1.72678873e-01 1.95332319e-01 1.51214570e-01
      1.57726601e-01 1.54175147e-01 1.18798450e-01 6.20057285e-02
      1.65809900e-01 1.86050713e-01 1.54191032e-01 2.24987984e-01
      1.60646245e-01 1.35658413e-01 9.81265679e-02 6.82767481e-02
      5.34191057e-02 1.05083361e-01 1.83643311e-01 2.24987984e-01
      2.24987984e-01 2.13933378e-01 1.61412731e-01 1.94485754e-01
      1.95380241e-01 8.82920399e-02 2.24987984e-01 2.24987984e-01
      2.24987984e-01 2.24987984e-01 2.22543344e-01 1.95028961e-01
      1.51957676e-01 1.33608967e-01 8.78741741e-02 1.15908913e-01
      1.72209695e-01 7.76715875e-02 1.86863571e-01 1.39263153e-01
      1.06448114e-01 1.90035835e-01 1.90516099e-01 1.51034787e-01
      1.04305752e-01 1.47836119e-01 1.64858609e-01 1.97228804e-01
      1.46547049e-01 1.55267969e-01 2.18168244e-01 2.18168244e-01
      1.19552031e-01 1.56864837e-01 1.24669068e-01 1.23271868e-01
      2.18168244e-01 2.18168244e-01 1.47924110e-01 2.18168244e-01
      2.15311930e-01 1.73770577e-01 1.40314221e-01 1.44612148e-01
      1.56792387e-01 2.18168244e-01 2.18168244e-01 1.68310940e-01
      1.18012697e-01 8.10294375e-02 1.06218018e-01 8.02403614e-02
      1.34226322e-01 2.38631845e-01 2.04017967e-01 1.01545393e-01
      1.22174390e-01 1.21995717e-01 2.76838914e-02 8.44056532e-02
      1.35121316e-01 2.38631845e-01 2.38631845e-01 2.38631845e-01
      1.50773630e-01 1.20226718e-01 1.40605748e-01 9.43542644e-02
      1.40122503e-01 9.77283642e-02 1.44666448e-01 2.38631845e-01
      2.38631845e-01 2.09549487e-01 1.77146554e-01 1.26892120e-01
      8.80165249e-02 8.70068967e-02 1.17995776e-01 1.76568136e-01
      2.38631845e-01 2.38631845e-01 2.38631845e-01 2.30656147e-01
      8.17888975e-02 1.07207656e-01 7.84643292e-02 1.27165139e-01
      1.77279323e-01 2.21398339e-01 1.86235473e-01 1.94623187e-01
      8.87394324e-02 1.11148484e-01 1.67554125e-01 9.26402807e-02
      1.53919190e-01 2.20535353e-01 2.21398339e-01 2.21398339e-01
      2.21398339e-01 1.68417633e-01 1.12182841e-01 9.25141722e-02
      9.18219015e-02 1.25716269e-01 1.58982411e-01 2.18555376e-01
      2.03143924e-01 2.21398339e-01 1.56772748e-01 9.39794779e-02
      1.04335636e-01 1.43150598e-01 7.41842091e-02 1.91574842e-01
      2.05985799e-01 2.08514944e-01 2.21398339e-01 2.21398339e-01
      1.38619795e-01 2.26798654e-01 1.22396238e-01 7.83550069e-02
      9.40374583e-02 1.12692952e-01 1.97665751e-01 2.26489499e-01
      1.46053076e-01 1.72943354e-01 1.88917503e-01 1.52349398e-01
      1.03583448e-01 1.60358921e-01 1.30908296e-01 2.26798654e-01
      1.83801264e-01 1.23920061e-01 1.35513768e-01 1.59936622e-01
      1.25096753e-01 2.52158772e-02 9.32439491e-02 1.45475835e-01
      1.78569868e-01 2.26798654e-01 2.26798654e-01 2.26798654e-01
      2.09110275e-01 1.02138668e-01 8.50916505e-02 1.26401722e-01
      1.47552848e-01 2.26798654e-01 2.26798654e-01 2.26798654e-01
      9.07198265e-02 9.35703814e-02 1.01401702e-01 6.78460672e-02
      1.20147273e-01 1.83124840e-01 2.63776690e-01 2.17135832e-01
      1.32495850e-01 6.39128312e-02 1.03568241e-01 7.16718212e-02
      4.24237959e-02 7.26565570e-02 2.63776690e-01 2.63776690e-01
      2.63776690e-01 2.29274064e-01 8.93440321e-02 1.01815574e-01
      6.12767860e-02 6.32216632e-02 9.37539563e-02 1.67405352e-01
      2.63776690e-01 2.63776690e-01 1.46922559e-01 4.78666201e-02
      9.92253870e-02 5.54243810e-02 2.95957532e-02 6.53888434e-02
      2.60074079e-01 2.63776690e-01 2.63776690e-01 2.10003048e-01
      1.18694335e-01 6.74230829e-02 5.21017760e-02 7.81191885e-02
      1.13338225e-01 1.45841286e-01 1.52759656e-01 1.69041872e-01
      1.89579114e-01 1.34920403e-01 1.43073887e-01 1.28930897e-01
      5.24014756e-02 1.56064004e-01 1.60601258e-01 1.68948844e-01
      2.21914992e-01 2.21914992e-01 1.49578869e-01 8.36313739e-02
      9.03570279e-02 1.42192602e-01 1.35588661e-01 2.03099310e-01
      2.21914992e-01 2.21914992e-01 2.21914992e-01 2.05750018e-01
      2.21914992e-01 2.21914992e-01 1.11900344e-01 1.70655400e-01
      1.33431017e-01 2.21914992e-01 2.21914992e-01 2.21914992e-01
      1.39055818e-01 1.66719332e-01 7.63748437e-02 4.50626500e-02
      9.30580273e-02 1.16994515e-01 1.14093892e-01 2.20988631e-01
      2.20988631e-01 2.03937992e-01 1.93564206e-01 6.07967526e-02
      5.45063689e-02 6.20301515e-02 1.06674597e-01 1.58265769e-01
      2.20988631e-01 2.20988631e-01 1.70435786e-01 2.20988631e-01
      1.98822424e-01 1.41751245e-01 1.38106585e-01 1.01690374e-01
      1.80849671e-01 1.54262319e-01 1.78880826e-01 2.20988631e-01
      2.20988631e-01 1.72494426e-01 1.81230158e-01 1.44050062e-01
      1.38721108e-01 2.10242197e-01 1.93287268e-01 2.20988631e-01
      1.11445442e-01 1.28717765e-01 6.56850636e-02 7.64760375e-02
      8.62434059e-02 1.21919841e-01 2.23123431e-01 2.23123431e-01
      1.81537136e-01 5.71106412e-02 8.20637494e-02 7.15898946e-02
      9.16963443e-02 1.09573558e-01 1.86133936e-01 2.23123431e-01
      2.23123431e-01 1.95669442e-01 1.73734665e-01 2.23123431e-01
      1.75432712e-01 2.23123431e-01 2.01563463e-01 9.63630974e-02
      1.54751629e-01 1.74890682e-01 1.58737600e-01 2.03659639e-01
      1.87051520e-01 1.38940513e-01 2.14083776e-01 2.23123431e-01
      1.26402363e-01 1.90972507e-01 1.71421871e-01 1.79894269e-01
      1.04924150e-01 6.40821829e-02 1.20319866e-01 1.62806377e-01
      1.07948132e-01 1.19923823e-01 1.44775093e-01 2.08611205e-01
      2.25196823e-01 1.79461136e-01 1.79040030e-01 2.25196823e-01
      1.51221380e-01 7.31657892e-02 9.78579596e-02 1.65779516e-01
      2.11732134e-01 2.08995417e-01 1.55353114e-01 1.06572486e-01
      1.07798472e-01 1.33470550e-01 1.44828632e-01 1.42463267e-01
      1.10981159e-01 1.68429941e-01 1.86892748e-01 2.25196823e-01
      2.25196823e-01 2.25196823e-01 1.91520080e-01 6.52147904e-02
      2.13592365e-01 9.86101553e-02 2.25196823e-01 2.25196823e-01
      1.26569942e-01 1.58799976e-01 2.30010703e-01 1.60473019e-01
      7.50132501e-02 6.89226314e-02 1.14119090e-01 1.19084612e-01
      1.28111482e-01 1.85566932e-01 1.83613732e-01 1.98234946e-01
      2.30010703e-01 1.16925403e-01 8.71489421e-02 1.46267325e-01
      9.47786346e-02 1.11311764e-01 2.30010703e-01 2.30010703e-01
      2.30010703e-01 1.90684050e-01 7.28783533e-02 1.20459720e-01
      7.56545588e-02 1.77812383e-01 2.30010703e-01 2.30010703e-01
      2.00230822e-01 2.30010703e-01 2.29148254e-01 8.35057721e-02
      9.91432816e-02 9.74382907e-02 1.29121840e-01 2.30010703e-01
      1.56684861e-01 1.96474254e-01 1.66705698e-01 2.18138278e-01
      1.48835823e-01 6.53051063e-02 9.53326821e-02 1.20548382e-01
      1.66689575e-01 1.89513877e-01 1.37298018e-01 1.43587604e-01
      1.63646668e-01 1.81207448e-01 1.02247447e-01 1.07134484e-01
      1.43019214e-01 2.05360487e-01 2.24121258e-01 1.98791638e-01
      1.94081649e-01 2.00657040e-01 8.47725496e-02 1.18759289e-01
      8.23115259e-02 1.35276124e-01 2.24121258e-01 2.24121258e-01
      1.74886584e-01 1.31383806e-01 1.47701681e-01 1.32950619e-01
      2.03720227e-01 1.34328768e-01 2.24121258e-01 2.24121258e-01
      3.20114583e-01 1.27050355e-01 7.82476887e-02 7.28567243e-02
      7.21397400e-02 7.31512308e-02 4.87531312e-02 5.05966321e-02
      1.78827301e-01 3.20114583e-01 1.79473311e-01 1.29553914e-01
      9.22412202e-02 2.46006772e-02 1.09194927e-01 4.90911566e-02
      1.01911299e-01 2.91585684e-01 3.20114583e-01 1.82839975e-01
      8.48097652e-02 6.67877048e-02 6.86864629e-02 5.23214079e-02
      6.74318150e-02 7.93655217e-02 3.20114583e-01 3.20114583e-01
      2.35640198e-01 8.58565122e-02 4.97302674e-02 3.43851857e-02
      1.16139119e-02 1.54390857e-02 9.35733542e-02 3.20114583e-01
      3.03123176e-01 1.86945826e-01 1.04736663e-01 5.73501661e-02
      1.92045607e-02 4.56607752e-02 3.65619734e-02 1.05000295e-01
      3.03123176e-01 3.03123176e-01 1.90616950e-01 8.51720348e-02
      6.12679198e-02 1.36694144e-02 2.88290773e-02 3.96252833e-02
      1.28020748e-01 3.03123176e-01 3.03123176e-01 2.16268942e-01
      5.29642962e-02 2.69169919e-02 1.48084182e-02 3.95123521e-03
      1.08233914e-02 8.50244462e-02 3.03123176e-01 3.03123176e-01
      2.16668889e-01 6.86027855e-02 2.03953218e-02 2.00619921e-02
      1.46596069e-02 3.11492812e-02 1.41491517e-01 3.03123176e-01
      3.12155545e-01 1.78366423e-01 7.10247308e-02 6.75302446e-02
      1.55989258e-02 4.36227955e-02 2.97418274e-02 8.53596777e-02
      3.12155545e-01 3.12155545e-01 1.66617408e-01 3.86029445e-02
      4.63636182e-02 4.87853549e-02 7.02374652e-02 6.61364421e-02
      1.30542681e-01 3.12155545e-01 3.12155545e-01 1.73091143e-01
      6.13964349e-02 2.56141443e-02 4.18239795e-02 1.82863623e-02
      2.69397199e-02 9.19730291e-02 3.12155545e-01 3.12155545e-01
      1.97005779e-01 5.53653575e-02 2.66324785e-02 5.82115166e-02
      3.35206352e-02 4.00070287e-02 1.05510727e-01 3.12155545e-01</_>
    <_>
      5.71484007e-02 3.51765454e-02 2.02468365e-01 1.68901429e-01
      1.31029695e-01 1.07106298e-01 4.61330302e-02 3.36758085e-02
      6.85880110e-02 2.98530068e-02 5.62456921e-02 8.85201693e-02
      1.26838803e-01 1.29247874e-01 1.01150051e-01 4.61463854e-02
      3.41190472e-02 4.62999083e-02 4.32537049e-01 8.90932903e-02
      5.02462126e-02 5.60109504e-02 6.88605830e-02 6.80090562e-02
      5.97439930e-02 9.15965140e-02 4.32537049e-01 4.32537049e-01
      1.51672289e-01 5.86371496e-02 3.43391448e-02 6.04400560e-02
      6.06592149e-02 3.93553227e-02 7.00934380e-02 4.32537049e-01
      2.81651113e-02 4.87297587e-02 5.69554493e-02 1.03946075e-01
      1.33187041e-01 7.75586814e-02 2.84502897e-02 3.58243324e-02
      3.04975957e-02 6.92546591e-02 4.53622043e-02 5.19288518e-02
      7.49748647e-02 1.25843093e-01 6.92062303e-02 4.74919230e-02
      4.36975025e-02 4.16760147e-02 4.64162827e-01 1.16079003e-01
      5.17953932e-02 3.29341553e-02 3.77448574e-02 3.11299600e-02
      1.60739087e-02 7.67593831e-02 4.64162827e-01 4.64162827e-01
      8.86150599e-02 4.81648594e-02 3.54721509e-02 4.67768759e-02
      1.80907398e-02 1.41644888e-02 8.91596228e-02 4.64162827e-01
      6.65910840e-02 2.84379963e-02 2.88111474e-02 2.75353678e-02
      2.21901938e-01 7.55772814e-02 3.03105898e-02 1.40316691e-02
      1.92587823e-02 5.76158203e-02 2.79742163e-02 2.68256348e-02
      7.25868419e-02 3.81405532e-01 2.49682754e-01 2.00023614e-02
      3.05566960e-03 1.20197060e-02 3.81405532e-01 6.51891306e-02
      3.05438191e-02 2.00963691e-02 9.05095935e-02 3.77194919e-02
      2.25972682e-02 1.78209245e-02 3.30635667e-01 3.81405532e-01
      1.33995220e-01 3.90245132e-02 1.13961622e-01 3.81405532e-01
      2.31146023e-01 4.44619618e-02 4.69424911e-02 2.50259012e-01
      3.81161809e-01 6.62169605e-02 1.11017171e-02 1.13660647e-02
      1.09395897e-02 5.98901371e-03 8.83351546e-03 2.47806944e-02
      3.23796183e-01 3.81161809e-01 8.19461122e-02 1.40197743e-02
      7.39405211e-03 1.13298614e-02 4.28193482e-03 2.73669022e-03
      3.53526808e-02 3.81161809e-01 3.81161809e-01 1.18664213e-01
      6.31255331e-03 2.99355923e-03 1.25854218e-03 0. 2.90641125e-04
      2.25711074e-02 2.19151586e-01 3.81161809e-01 1.71774805e-01
      1.71619803e-02 9.18294303e-03 2.08931719e-03 0. 5.34233986e-04
      4.54343297e-02 2.37588778e-01 3.62701148e-01 6.49738088e-02
      1.41843455e-02 5.04200207e-03 3.80808255e-03 3.75600532e-03
      5.36296843e-03 3.30086835e-02 3.45416784e-01 3.62701148e-01
      6.53266236e-02 2.12190580e-02 1.38282096e-02 9.79945157e-03
      9.08849202e-03 9.10165720e-03 3.29853818e-02 3.40679258e-01
      3.62701148e-01 1.49792284e-01 3.06553748e-02 9.68546048e-03
      1.38592510e-03 2.21495493e-03 5.63728111e-03 4.38174531e-02
      2.71136343e-01 3.62701148e-01 8.98977593e-02 4.52925190e-02
      2.02666763e-02 7.64514087e-03 1.09862182e-02 1.42216543e-02
      4.17323075e-02 3.33657950e-01 2.99450487e-01 4.57750410e-02
      3.05650122e-02 2.70470604e-02 4.06208709e-02 2.63164248e-02
      2.32208073e-02 2.41865274e-02 2.99450487e-01 2.99450487e-01
      6.42536879e-02 4.22911681e-02 7.93753564e-02 2.85934538e-01
      2.00569585e-01 6.45853877e-02 5.31772450e-02 2.28241980e-01
      2.99450487e-01 6.06600195e-02 5.86971007e-02 4.11045887e-02
      3.54642235e-02 2.97119096e-02 2.78327577e-02 3.95601504e-02
      2.57459939e-01 2.99450487e-01 1.06153414e-01 2.29686871e-01
      1.97263733e-01 2.42527187e-01 2.10620984e-01 9.75086242e-02
      3.74314785e-02 2.26983100e-01 3.36878359e-01 7.38273114e-02
      3.71434423e-03 7.20106438e-03 1.60509557e-03 0. 1.58584537e-03
      3.23565491e-02 2.65900016e-01 3.36878359e-01 1.78239241e-01
      2.08108611e-02 8.37150030e-03 2.07689777e-03 7.83526152e-03
      7.22047081e-03 3.36869359e-02 2.28419334e-01 3.36878359e-01
      3.09110042e-02 6.72207447e-03 2.28534993e-02 7.31026242e-03
      3.04525928e-03 1.62044894e-02 2.19594836e-01 3.36878359e-01
      3.36878359e-01 1.19757436e-01 2.71177068e-02 2.67709866e-02
      7.83077814e-03 2.75882669e-02 5.51399328e-02 2.91555464e-01
      3.33910108e-01 3.18766713e-01 1.59789503e-01 2.80901510e-02
      3.02539160e-03 1.26326596e-03 1.42127620e-02 2.75027268e-02
      7.01949522e-02 2.93130517e-01 3.18766713e-01 5.11651859e-02
      2.50773560e-02 8.39719363e-03 6.69913366e-03 1.20509779e-02
      3.53685766e-02 7.40620419e-02 3.18766713e-01 3.18766713e-01
      1.02251805e-01 2.78271250e-02 6.58332789e-03 7.60727515e-03
      3.93994190e-02 1.03913411e-01 2.60511667e-01 2.27500573e-01
      3.18766713e-01 3.53426933e-02 5.73198609e-02 3.57770883e-02
      2.67787371e-02 2.46962290e-02 1.60166055e-01 2.99799383e-01
      3.07226211e-01 3.28984797e-01 5.34238666e-02 3.78398858e-02
      1.79061275e-02 1.26394983e-02 1.22716408e-02 1.95278041e-02
      3.36469188e-02 3.28984797e-01 3.28984797e-01 1.68280661e-01
      2.29063913e-01 1.51246309e-01 5.70814945e-02 5.65517247e-02
      3.98112088e-02 2.69090161e-02 3.28984797e-01 3.28984797e-01
      7.14926496e-02 1.34184882e-01 6.69660792e-02 3.93542498e-02
      1.15310242e-02 6.58315644e-02 1.11438990e-01 2.37004340e-01
      3.28984797e-01 1.92946360e-01 2.00627923e-01 1.15902297e-01
      5.79879694e-02 6.14377065e-03 1.03394846e-02 1.39130969e-02
      1.77894488e-01 2.05014959e-01 6.84742332e-02 1.50317410e-02
      1.54945776e-02 1.18626673e-02 1.62390713e-02 2.92765871e-02
      2.84350008e-01 2.84350008e-01 1.06724836e-01 4.76586446e-02
      2.47924626e-02 2.77145989e-02 2.15395354e-02 4.87680435e-02
      1.76454112e-01 2.84350008e-01 2.84350008e-01 2.84350008e-01
      1.28095046e-01 5.45437448e-02 2.01117676e-02 1.21030929e-02
      2.36523449e-02 3.76344435e-02 9.65576544e-02 2.84350008e-01
      2.84350008e-01 2.25475430e-01 2.28821933e-01 6.33892119e-02
      4.65605333e-02 5.89087903e-02 1.67050064e-01 2.84350008e-01
      2.84350008e-01 6.34638593e-02 3.73482108e-02 5.28085008e-02
      4.74463366e-02 3.55631001e-02 6.93022087e-02 2.16388553e-01
      2.71379918e-01 1.05338871e-01 1.08527452e-01 1.20759547e-01
      2.52342701e-01 1.52898207e-01 4.49965931e-02 5.11869490e-02
      1.70713201e-01 2.66479880e-01 1.12919301e-01 9.82350186e-02
      2.71379918e-01 2.71379918e-01 2.40778476e-01 8.61797184e-02
      8.97616223e-02 2.09250599e-01 2.71379918e-01 1.07621379e-01
      1.00622661e-01 2.71379918e-01 2.71379918e-01 2.71379918e-01
      8.02605152e-02 5.69459982e-02 9.51380655e-02 8.43209475e-02
      4.35322560e-02 1.57434314e-01 2.12049723e-01 2.62212038e-01
      2.61750996e-01 6.36887848e-02 2.10291203e-02 8.38761181e-02
      1.36476859e-01 1.06862210e-01 2.41501734e-01 2.62212038e-01
      2.62212038e-01 2.51061380e-01 6.91469088e-02 7.30895763e-03
      1.69488359e-02 2.80260830e-03 4.04235050e-02 1.70290068e-01
      2.62212038e-01 2.62212038e-01 2.62212038e-01 4.05280665e-02
      6.73024449e-03 1.20804552e-02 1.33419726e-02 2.78348569e-02
      2.33170018e-01 2.62212038e-01 2.62212038e-01 2.25328699e-01
      3.92200239e-02 9.47046001e-03 1.46079632e-02 9.88572952e-04
      2.46452652e-02 2.97136307e-01 8.91656503e-02 9.24529210e-02
      1.47057977e-02 4.36015613e-03 7.82967824e-03 1.03349695e-02
      1.66166611e-02 2.74152786e-01 2.97136307e-01 2.97136307e-01
      2.97136307e-01 5.33737577e-02 1.68536380e-02 1.77715365e-02
      1.86697338e-02 2.28857361e-02 2.74123967e-01 2.56135106e-01
      2.97136307e-01 2.97136307e-01 3.65873612e-02 2.36317664e-02
      4.28709388e-03 3.82221700e-03 2.14451384e-02 1.51750177e-01
      1.09505735e-01 2.97136307e-01 2.97136307e-01 8.84366930e-02
      1.32722203e-02 7.12168030e-03 8.64515954e-04 6.00006012e-03
      8.83705169e-02 1.16308711e-01 3.44063997e-01 3.44063997e-01
      1.69419825e-01 3.70004475e-02 2.80827731e-02 3.06162052e-02
      3.28279957e-02 1.01766087e-01 3.79042476e-02 3.18426520e-01
      3.44063997e-01 2.24572420e-01 3.76630463e-02 1.38591314e-02
      1.48367276e-02 1.03288926e-02 1.05633643e-02 4.66504022e-02
      3.44063997e-01 3.44063997e-01 1.09662972e-01 1.03564821e-02
      5.45661058e-03 0. 1.32976274e-03 2.93578655e-02 3.77985425e-02
      2.26244420e-01 3.44063997e-01 7.92579055e-02 6.99707586e-03
      2.96478602e-03 1.65262856e-04 2.51337211e-03 6.65595336e-03
      1.46407917e-01 2.96070278e-01 2.96070278e-01 2.96070278e-01
      6.61498308e-02 4.30292595e-04 7.08610401e-04 3.40542407e-03
      1.56761315e-02 1.76886052e-01 2.96070278e-01 2.96070278e-01
      2.47496888e-01 6.44580573e-02 1.01883383e-02 2.74698250e-02
      8.66089389e-03 2.49640401e-02 1.54575080e-01 2.96070278e-01
      2.96070278e-01 1.73556104e-01 4.99624386e-02 1.44204926e-02
      2.89979838e-02 2.04951148e-02 3.41318585e-02 1.20182671e-01
      1.93741873e-01 2.81353652e-01 1.99312150e-01 6.27661273e-02
      5.42399734e-02 1.09782629e-01 6.51238635e-02 7.70007521e-02
      8.15439746e-02 3.47254097e-01 3.47254097e-01 6.56670555e-02
      3.38434242e-02 1.40874926e-03 2.80967704e-03 1.31191211e-02
      4.16233502e-02 2.82958914e-02 3.47254097e-01 3.47254097e-01
      1.10732697e-01 6.05844008e-03 1.24115765e-03 6.40422280e-04
      1.19875092e-03 3.38272587e-03 6.39548302e-02 3.47254097e-01
      3.47254097e-01 5.88013791e-02 7.40249641e-03 0. 0. 4.23845416e-03
      2.37961151e-02 4.10763547e-02 3.28848809e-01 3.47254097e-01
      8.50638151e-02 5.47184562e-03 8.89555900e-04 2.35569151e-03
      1.51354005e-03 2.69940612e-03 9.15238485e-02 3.32676321e-01
      3.32676321e-01 2.75238723e-01 1.19891483e-02 1.06122149e-02
      7.26556027e-05 3.83928348e-03 2.48752106e-02 1.11407168e-01
      2.91252345e-01 3.32676321e-01 1.83623046e-01 1.73533279e-02
      1.65672731e-02 2.49961740e-03 1.18153561e-02 4.45024446e-02
      1.44772142e-01 3.32676321e-01 3.32676321e-01 1.62691534e-01
      2.38752514e-02 1.57938208e-02 1.80774648e-02 2.99216304e-02
      2.99740750e-02 1.51906356e-01 2.13378385e-01 2.61906266e-01
      1.25136524e-01 5.02818860e-02 3.58590893e-02 4.90939617e-02
      6.37696981e-02 1.05395451e-01 1.23234749e-01 1.54045507e-01
      2.49105886e-01 1.07385822e-01 3.13458517e-02 3.91293131e-02
      6.07310236e-02 3.00427601e-02 6.07147738e-02 1.34146720e-01
      2.47069150e-01 2.44524404e-01 1.14075273e-01 4.62492332e-02
      1.13356821e-01 1.65610984e-01 1.04646049e-01 1.13028623e-01
      1.26871005e-01 3.47590655e-01 3.47590655e-01 1.65792361e-01
      4.75852527e-02 6.05546758e-02 8.36036280e-02 5.98243773e-02
      1.20872311e-01 1.50805563e-01 3.47590655e-01 3.47590655e-01
      1.79902270e-01 5.87843992e-02 1.04945920e-01 1.13387369e-01
      6.91630542e-02 1.00305885e-01 1.50409013e-01 3.18157643e-01
      3.18157643e-01 8.75614509e-02 1.57980751e-02 1.76386330e-02
      9.35399998e-03 6.47614198e-03 4.40684222e-02 1.09538883e-01
      3.18157643e-01 2.96145618e-01 8.80172476e-02 2.29099896e-02
      1.68172214e-02 2.49089897e-02 1.98811349e-02 3.20418514e-02
      2.38126025e-01 3.18157643e-01 2.86276102e-01 6.43520206e-02
      2.95211859e-02 2.36985162e-02 3.66872400e-02 4.22159992e-02
      1.19681582e-01 2.69844711e-01 3.18157643e-01 2.40351692e-01
      1.29457936e-01 5.46910204e-02 4.14249077e-02 6.88179955e-02
      8.82560685e-02 1.45666122e-01 9.72481743e-02 1.41836941e-01
      1.03377342e-01 4.40614596e-02 2.07447894e-02 8.85276776e-03
      2.16872450e-02 2.95862462e-02 2.89402883e-02 1.24987237e-01
      2.06257626e-01 2.21741587e-01 2.50877678e-01 8.43880177e-02
      3.34915593e-02 5.64961918e-02 5.37747554e-02 8.43893662e-02
      1.39613777e-01 3.65611881e-01 3.65611881e-01 1.58569306e-01
      4.26974148e-02 2.30985042e-02 3.10415160e-02 4.06411327e-02
      5.86588085e-02 1.30407870e-01 3.65611881e-01 3.65611881e-01
      3.65611881e-01 1.22522444e-01 3.36813778e-02 3.32465544e-02
      2.53185052e-02 5.85062578e-02 7.01784939e-02 2.56547749e-01
      3.02080989e-01 3.02080989e-01 9.17534456e-02 3.32998335e-02
      5.58094941e-02 4.57941703e-02 7.59211555e-02 8.90267417e-02
      3.02080989e-01 3.02080989e-01 2.03938887e-01 1.00334547e-01
      2.88462043e-02 3.89200971e-02 6.38981089e-02 7.71254599e-02
      1.05302110e-01 2.09355593e-01 3.02080989e-01 3.02080989e-01
      1.28331512e-01 3.86519358e-02 3.36966701e-02 4.61763851e-02
      7.51755089e-02 1.16448231e-01 1.29386321e-01 1.97355449e-01
      2.64014691e-01 1.86677486e-01 5.98240383e-02 5.10319844e-02
      1.18676014e-01 1.01915091e-01 1.76136822e-01 3.32547277e-01
      1.08902827e-01 1.32776462e-02 4.10625059e-03 3.31941224e-03
      5.46963001e-03 1.22933015e-02 4.08041142e-02 1.08192772e-01
      3.66892785e-01 3.35787296e-01 1.17761016e-01 3.27691957e-02
      1.80832855e-02 1.14754913e-02 2.18042675e-02 3.06606125e-02
      3.19320500e-01 3.66892785e-01 2.05420777e-01 4.58773738e-03
      2.30081938e-03 5.97372372e-03 2.50141392e-03 7.62871141e-03
      3.47535796e-02 8.28161612e-02 3.66892785e-01 3.66892785e-01
      8.96510035e-02 1.91370752e-02 1.43985925e-02 5.75098116e-03
      5.72336698e-03 7.99909700e-03 5.38894199e-02 2.87846744e-01
      3.66180927e-01 2.23081023e-01 3.51100154e-02 2.10580174e-02
      1.10265892e-02 1.76760443e-02 1.80451982e-02 2.72298455e-02
      1.67931661e-01 3.66180927e-01 3.00974220e-01 2.53325365e-02
      1.25802932e-02 7.71597913e-03 1.77851156e-03 8.48238543e-03
      3.38533670e-02 3.66180927e-01 3.66180927e-01 1.76125675e-01
      1.94527432e-02 1.15421023e-02 7.61630572e-03 8.02988466e-03
      8.52391031e-03 4.41006497e-02 1.34319067e-01 3.66180927e-01
      1.16518810e-01 9.53678135e-03 1.30759962e-02 2.07941979e-02
      5.13398321e-03 1.78540293e-02 1.18882485e-01 2.06685245e-01
      3.31050634e-01 3.31050634e-01 7.77532980e-02 5.58677576e-02
      2.70759333e-02 3.22341137e-02 4.67189178e-02 1.28292814e-01
      1.63470358e-01 1.62969813e-01 2.64384538e-01 2.53047615e-01
      1.22721009e-01 1.21771969e-01 9.01473835e-02 7.22013339e-02
      1.28110319e-01 1.82095036e-01 3.31050634e-01 2.05739126e-01
      6.74029812e-02 4.50431183e-02 7.38022104e-02 3.07879895e-02
      4.91554365e-02 1.05598465e-01 1.69430822e-01 1.32899001e-01
      2.43288249e-01 2.90377945e-01 9.00956020e-02 1.70409083e-01
      6.26936033e-02 4.04461287e-02 3.48755926e-01 3.85036409e-01
      2.32461393e-01 5.96918073e-03 3.28609627e-03 3.30141676e-03
      5.26371412e-03 2.45978069e-02 3.64589244e-02 9.76652205e-02
      3.85036409e-01 3.85036409e-01 1.34860249e-02 1.35173928e-02
      1.14577329e-02 1.97105091e-02 1.44071048e-02 2.05017012e-02
      2.49932751e-01 3.85036409e-01 1.31306261e-01 3.67347151e-02
      2.45902594e-02 1.53030585e-02 1.84810217e-02 4.74135168e-02
      5.28862104e-02 1.01388365e-01 3.10209364e-01 1.09410882e-01
      2.29670703e-02 5.34557253e-02 2.17454676e-02 2.33585462e-02
      2.72942688e-02 5.90827540e-02 1.50379911e-01 4.07027334e-01
      4.07027334e-01 9.22443047e-02 5.76021820e-02 3.42754088e-02
      7.45736659e-02 7.88344741e-02 9.92559865e-02 1.28515258e-01
      2.21042573e-01 3.90610605e-01 1.08059026e-01 5.49881719e-02
      3.82666737e-02 8.69038329e-02 7.87640437e-02 1.12088084e-01
      1.83812529e-01 3.46785069e-01 1.32822797e-01 4.81235199e-02
      1.35958210e-01 5.67269139e-02 8.91919956e-02 1.08045645e-01
      1.81248933e-01 1.06577538e-01 1.09085165e-01 4.07288224e-02
      5.93015254e-02 1.24081753e-01 7.61458427e-02 1.15315124e-01
      1.31938368e-01 1.35606110e-01 1.84828967e-01 1.64855659e-01
      1.43853247e-01 1.52512759e-01 1.27449095e-01 9.69766378e-02
      1.27663568e-01 9.83742848e-02 1.71646744e-01 1.27358437e-01
      1.35617003e-01 1.66054919e-01 2.39363223e-01 2.78126597e-01
      2.26762995e-01 1.60773605e-01 9.19076726e-02 9.31133553e-02
      1.83501184e-01 7.99840391e-02 4.98089232e-02 1.19027756e-01
      1.91210762e-01 1.81130931e-01 1.98858202e-01 1.76571637e-01
      2.36482173e-01 1.13417365e-01 3.91141884e-02 1.31456241e-01
      2.09385604e-01 2.78126597e-01 2.78126597e-01 9.00769308e-02
      7.26603195e-02 1.52532980e-01 2.46603042e-01 1.31699070e-01
      9.59262103e-02 1.10703006e-01 1.04048841e-01 1.13589473e-01
      9.65290591e-02 1.71317473e-01 2.46603042e-01 1.68645844e-01
      7.89789706e-02 6.76164106e-02 5.21750711e-02 1.05812609e-01
      7.85916522e-02 7.68477321e-02 1.25217333e-01 2.46603042e-01
      1.89643234e-01 4.79700118e-02 1.10583402e-01 6.88015670e-02
      2.46603042e-01 2.46603042e-01 2.25850701e-01 2.46603042e-01
      2.46603042e-01 1.65397957e-01 5.72113805e-02 8.77701491e-02
      5.65343946e-02 1.97649032e-01 2.14179590e-01 1.88108698e-01
      2.46603042e-01 2.46603042e-01 1.97465241e-01 1.12385966e-01
      7.47138336e-02 5.56120165e-02 1.31110951e-01 1.20196372e-01
      1.31440774e-01 1.51377395e-01 2.25254998e-01 1.29780725e-01
      8.70858952e-02 8.74551162e-02 1.79597870e-01 1.62029818e-01
      1.42847523e-01 1.95913345e-01 1.60816208e-01 1.42640516e-01
      1.62506431e-01 7.87240639e-02 1.40234947e-01 1.39734581e-01
      1.85256824e-01 2.25254998e-01 2.25254998e-01 2.25254998e-01
      2.25254998e-01 1.37117445e-01 1.19469941e-01 2.19709933e-01
      2.25254998e-01 1.78207964e-01 1.58227623e-01 1.86557531e-01
      2.01233700e-01 2.14583024e-01 8.50210562e-02 3.08484770e-02
      8.30557570e-02 2.37236679e-01 1.69168755e-01 1.48724899e-01
      2.47715592e-01 1.57233924e-01 1.04786433e-01 4.97335494e-02
      2.59227809e-02 1.06465608e-01 2.09104002e-01 2.64946669e-01
      2.64946669e-01 1.04631148e-01 5.91779277e-02 7.37481341e-02
      6.92231506e-02 7.78422430e-02 2.18026638e-01 2.64946669e-01
      1.75849140e-01 1.07491665e-01 1.73957631e-01 1.55494004e-01
      1.91689476e-01 3.46703343e-02 1.05818026e-01 1.44223019e-01
      2.64946669e-01 2.64946669e-01 2.64946669e-01 1.55369535e-01
      1.17429487e-01 1.25450656e-01 4.53947820e-02 1.12250559e-02
      6.07882366e-02 4.98353913e-02 3.06587428e-01 3.06587428e-01
      1.85186341e-01 1.86014280e-01 1.55332565e-01 6.13134429e-02
      1.34639824e-02 3.11440490e-02 3.72727923e-02 1.93530068e-01
      1.84313372e-01 1.63006052e-01 1.44257113e-01 6.32260144e-02
      2.93517690e-02 1.03183743e-02 4.32123244e-02 4.11981642e-02
      3.06587428e-01 3.06587428e-01 3.06587428e-01 1.36258274e-01
      6.77151084e-02 1.89711675e-02 2.68014474e-03 1.52526936e-02
      3.79236415e-02 3.06587428e-01 3.06587428e-01 2.36044362e-01
      1.45109326e-01 4.44621406e-02 9.82161388e-02 3.55855338e-02
      9.74846631e-02 1.22593984e-01 2.01845154e-01 2.49588460e-01
      2.62760907e-01 1.84879467e-01 1.07686840e-01 5.64036183e-02
      6.30688146e-02 1.32982746e-01 1.65140033e-01 2.27276862e-01
      2.11599618e-01 2.36711383e-01 1.28851801e-01 1.11910231e-01
      2.42782366e-02 3.27011896e-03 2.11066622e-02 8.90585035e-02
      2.62760907e-01 2.62760907e-01 2.62760907e-01 1.99062034e-01
      8.88310820e-02 6.27603661e-03 1.63555443e-02 5.19579723e-02
      1.38779178e-01 2.62760907e-01 2.62760907e-01 2.62760907e-01
      1.25553474e-01 3.98339666e-02 3.12573165e-02 7.64408112e-02
      2.02596590e-01 2.04451188e-01 2.26801336e-01 1.27425641e-01
      1.21321023e-01 1.07040517e-01 1.01310544e-01 3.10039055e-02
      1.00016512e-01 1.65975899e-01 2.39135876e-01 2.48739719e-01
      1.85219571e-01 1.58152327e-01 1.22264445e-01 7.49348626e-02
      1.65116750e-02 6.34652525e-02 1.29777357e-01 2.18386218e-01
      2.48739719e-01 2.48739719e-01 2.48739719e-01 1.33943811e-01
      1.71592999e-02 4.91274223e-02 8.93217996e-02 1.65759385e-01
      2.25351423e-01 2.48739719e-01 2.48739719e-01 2.48739719e-01
      1.36615410e-01 2.57923566e-02</_>
    <_>
      6.32270649e-02 1.11493967e-01 6.38704002e-02 2.01078147e-01
      2.54914850e-01 2.54914850e-01 1.11932687e-01 1.76304430e-01
      4.10630703e-02 1.42287448e-01 1.70089051e-01 1.64470643e-01
      1.93838701e-01 1.75937176e-01 1.40189722e-01 1.26409769e-01
      1.65575877e-01 9.58055556e-02 7.75007084e-02 8.75762925e-02
      4.65710014e-02 2.10914269e-01 2.54914850e-01 2.54914850e-01
      1.92104563e-01 1.28502607e-01 8.91570672e-02 1.69911206e-01
      1.29777133e-01 1.34836093e-01 2.54914850e-01 2.54914850e-01
      1.51473448e-01 1.50424317e-01 1.52337909e-01 1.73137769e-01
      1.56997278e-01 8.67048055e-02 1.52331889e-01 1.41765818e-01
      1.25510305e-01 1.41763985e-01 1.34146959e-01 1.22969642e-01
      1.40220970e-01 1.37199059e-01 5.53284399e-02 1.46699101e-01
      1.54556766e-01 2.30748415e-01 2.30748415e-01 1.77917749e-01
      1.26765549e-01 1.21299975e-01 1.30521998e-01 7.86002576e-02
      1.21024393e-01 2.30748415e-01 2.30748415e-01 2.09737495e-01
      2.30748415e-01 1.50213808e-01 1.68116063e-01 9.59234312e-02
      5.05318530e-02 7.26087913e-02 1.97544441e-01 2.30748415e-01
      2.30748415e-01 2.30748415e-01 2.17324272e-01 2.04813197e-01
      6.60634860e-02 7.95334950e-02 1.07998945e-01 1.59837380e-01
      2.44894296e-01 1.96419075e-01 1.41434088e-01 1.25652894e-01
      7.19294026e-02 9.17847753e-02 1.44364148e-01 1.60090253e-01
      1.44879743e-01 2.40500256e-01 1.33922815e-01 6.56442717e-02
      1.06439307e-01 1.04108512e-01 7.03659728e-02 6.92365766e-02
      9.57084298e-02 1.61249533e-01 2.44894296e-01 2.44894296e-01
      2.44894296e-01 2.19276831e-01 1.22888640e-01 1.03219658e-01
      1.24583259e-01 2.27964550e-01 1.43789828e-01 2.17890620e-01
      2.44894296e-01 2.44894296e-01 2.44894296e-01 1.33301049e-01
      1.27454937e-01 6.37018606e-02 6.97016045e-02 8.72252136e-02
      2.18654945e-01 2.18654945e-01 2.07143322e-01 1.82109654e-01
      1.33152559e-01 2.18654945e-01 1.06722035e-01 1.09991580e-01
      1.73174456e-01 1.40343830e-01 1.14789113e-01 1.80490375e-01
      1.69856995e-01 2.18654945e-01 1.30088806e-01 1.07965671e-01
      2.18654945e-01 2.18654945e-01 2.18654945e-01 1.42279744e-01
      1.58768579e-01 2.18654945e-01 1.31440595e-01 2.18654945e-01
      1.62862808e-01 2.18654945e-01 1.29282117e-01 6.26908392e-02
      8.98958668e-02 1.41978621e-01 2.18654945e-01 1.75614789e-01
      1.05672948e-01 5.75791188e-02 8.89553055e-02 1.66858390e-01
      1.72737032e-01 2.46633396e-01 2.50406325e-01 1.17721617e-01
      1.21293187e-01 5.03034815e-02 3.95041816e-02 3.06525622e-02
      1.10460177e-01 2.16154978e-01 2.54231989e-01 2.54231989e-01
      1.96342677e-01 9.58755165e-02 1.59689739e-01 1.35304898e-01
      2.11006418e-01 1.41480446e-01 1.23446837e-01 2.54231989e-01
      1.54451147e-01 1.28866360e-01 1.20804101e-01 1.08430229e-01
      4.86228056e-02 9.59201902e-02 1.13820769e-01 2.45145380e-01
      2.54231989e-01 2.54231989e-01 2.20934778e-01 8.11581984e-02
      3.78472582e-02 3.11357882e-02 2.45796535e-02 6.45775720e-02
      2.29082748e-01 2.80302614e-01 2.80302614e-01 1.49390891e-01
      5.59143350e-02 3.63150090e-02 4.24058884e-02 9.88954157e-02
      1.02863371e-01 2.80302614e-01 2.80302614e-01 2.43138090e-01
      1.57605395e-01 6.78121373e-02 4.39372808e-02 1.55559815e-02
      1.86882094e-02 1.41924739e-01 2.80302614e-01 2.80302614e-01
      1.83660403e-01 9.82855707e-02 3.01011223e-02 3.52117866e-02
      5.15090488e-02 7.27654696e-02 2.61920273e-01 2.80302614e-01
      2.80302614e-01 1.44824132e-01 6.47102296e-02 3.99724208e-02
      7.07411617e-02 6.66820481e-02 2.09849149e-01 2.41491839e-01
      2.41491839e-01 1.51888549e-01 8.41071531e-02 1.05864070e-01
      1.30902469e-01 1.53014839e-01 1.73928306e-01 1.81940675e-01
      1.08061731e-01 5.95668182e-02 6.96896166e-02 7.44647235e-02
      1.60995349e-01 1.70218661e-01 2.09510446e-01 1.99651659e-01
      1.48013011e-01 1.35101110e-01 2.41491839e-01 2.41491839e-01
      1.19199730e-01 1.29723623e-01 2.41491839e-01 2.41491839e-01
      2.41491839e-01 1.39990449e-01 6.97556585e-02 1.16311483e-01
      1.20162405e-01 7.40304440e-02 1.97266966e-01 2.41491839e-01
      1.35284737e-01 1.59634084e-01 1.77487433e-01 1.08841866e-01
      7.05291405e-02 1.78201646e-01 7.50029609e-02 9.31544825e-02
      1.02318503e-01 8.81840438e-02 4.93813567e-02 1.14977174e-01
      1.66379914e-01 2.53932804e-01 2.82978296e-01 1.59462482e-01
      1.26085192e-01 1.12176821e-01 2.82978296e-01 2.66518503e-01
      1.01939142e-01 6.89398870e-02 6.26775250e-02 9.05539691e-02
      3.74648497e-02 1.79447219e-01 2.82978296e-01 1.82415918e-01
      5.44314347e-02 8.81693885e-02 1.54808670e-01 1.90208316e-01
      1.96698099e-01 6.23488091e-02 2.82978296e-01 2.82978296e-01
      2.79240422e-02 9.67259798e-03 3.74285653e-02 1.70932814e-01
      2.68252909e-01 2.68252909e-01 8.71386454e-02 6.09049909e-02
      5.91173470e-02 7.12808967e-02 6.72767684e-02 9.22626331e-02
      2.13689715e-01 2.68252909e-01 2.54335046e-01 8.55829343e-02
      3.77656594e-02 4.99684401e-02 6.42753616e-02 2.58069988e-02
      8.49862322e-02 2.22547382e-01 2.68252909e-01 2.05868736e-01
      8.08058828e-02 2.68252909e-01 2.68252909e-01 1.17681004e-01
      6.62540048e-02 1.41116977e-01 2.68252909e-01 2.68252909e-01
      1.68923184e-01 7.71198198e-02 1.45598143e-01 1.77040756e-01
      2.19983324e-01 2.11361289e-01 1.78573862e-01 1.12986289e-01
      1.47848099e-01 1.56532913e-01 1.11715175e-01 6.91389963e-02
      2.00341806e-01 2.19983324e-01 2.19983324e-01 1.98967531e-01
      1.18306652e-01 1.14833757e-01 1.49865240e-01 5.83253242e-02
      1.05002888e-01 1.93378150e-01 2.19983324e-01 2.19983324e-01
      2.01498061e-01 2.19983324e-01 6.84755221e-02 1.42382443e-01
      1.81665659e-01 7.61275217e-02 1.48804754e-01 2.19983324e-01
      1.89219624e-01 2.19983324e-01 2.19983324e-01 6.58833310e-02
      1.67246476e-01 9.24612284e-02 1.24189265e-01 9.76480469e-02
      2.86044687e-01 2.86044687e-01 9.43977684e-02 5.58805242e-02
      3.87767069e-02 5.42177632e-02 3.38483676e-02 1.11646444e-01
      2.86044687e-01 2.86044687e-01 1.25796735e-01 7.21652657e-02
      3.17594968e-02 5.43155782e-02 5.15192859e-02 5.64781278e-02
      2.86044687e-01 2.86044687e-01 2.86044687e-01 2.42737100e-01
      1.15018696e-01 7.23261237e-02 2.80234739e-02 7.32924715e-02
      5.50308898e-02 8.48340094e-02 1.65570378e-01 2.86044687e-01
      1.97935268e-01 1.30212188e-01 2.53356230e-02 6.43096343e-02
      3.21312137e-02 7.15523884e-02 1.07628599e-01 2.86044687e-01
      1.69301674e-01 4.98931445e-02 1.05063424e-01 1.07027851e-01
      2.34907731e-01 1.75051197e-01 1.06742442e-01 2.34907731e-01
      2.34907731e-01 9.47229564e-02 6.52529001e-02 1.80721939e-01
      2.34907731e-01 2.34907731e-01 2.34907731e-01 8.59232396e-02
      1.56551361e-01 1.55895934e-01 2.34907731e-01 8.65041316e-02
      1.09472439e-01 4.91617844e-02 1.57736927e-01 9.99567285e-02
      1.22789472e-01 1.76989704e-01 2.34907731e-01 1.56457260e-01
      1.01124264e-01 1.71910405e-01 1.51069328e-01 1.87933177e-01
      2.34907731e-01 1.89064994e-01 1.39062449e-01 1.50358185e-01
      2.18856364e-01 2.18856364e-01 1.26960441e-01 1.98439211e-01
      5.74050024e-02 1.04942791e-01 1.15977027e-01 1.13496996e-01
      1.89570010e-01 2.18856364e-01 2.18856364e-01 1.57808781e-01
      2.16728747e-01 7.22006634e-02 1.20344043e-01 1.16197549e-01
      1.48900360e-01 1.75925747e-01 2.10785612e-01 1.97927594e-01
      1.21559560e-01 7.36347139e-02 7.31283948e-02 1.03555404e-01
      1.14579573e-01 1.88004807e-01 2.09042251e-01 2.18856364e-01
      2.18856364e-01 2.11390853e-01 1.99719027e-01 1.66895062e-01
      2.01851428e-01 1.26118302e-01 1.14889018e-01 1.60716295e-01
      2.32503518e-01 2.32503518e-01 1.39649272e-01 9.86976027e-02
      4.95248549e-02 6.25780150e-02 7.42091313e-02 9.67925116e-02
      1.57914788e-01 2.32503518e-01 1.79868937e-01 1.46813586e-01
      6.81149065e-02 7.25206509e-02 6.99605718e-02 8.72964412e-02
      1.18325695e-01 2.32503518e-01 1.95610717e-01 2.32503518e-01
      2.32503518e-01 2.32503518e-01 1.25748664e-01 1.51452944e-01
      1.32321373e-01 8.49625692e-02 1.40161112e-01 2.16802523e-01
      1.99531406e-01 2.32503518e-01 2.10631758e-01 8.16185251e-02
      1.14976503e-01 1.78312555e-01 2.02886879e-01 2.32503518e-01
      1.79787204e-01 1.03668936e-01 1.07577734e-01 7.59947598e-02
      1.05769061e-01 1.03402041e-01 1.50959998e-01 1.85306221e-01
      2.18537226e-01 1.39494911e-01 1.03713118e-01 1.18672483e-01
      1.10920288e-01 6.33195043e-02 1.80793762e-01 2.30316386e-01
      2.30316386e-01 2.30316386e-01 1.77071124e-01 1.51411593e-01
      1.45275488e-01 1.14049129e-01 9.00423005e-02 9.78863165e-02
      2.20532030e-01 2.30316386e-01 2.30316386e-01 1.72276989e-01
      1.62837759e-01 1.75696880e-01 1.76460996e-01 8.58958364e-02
      1.12048097e-01 2.30316386e-01 2.30316386e-01 2.30316386e-01
      1.65990934e-01 1.60803020e-01 1.08974583e-01 6.02888614e-02
      9.42540914e-02 2.09640712e-01 1.92469075e-01 1.54506624e-01
      1.02827877e-01 1.42636687e-01 1.79031074e-01 1.44451097e-01
      1.32439747e-01 1.29310191e-01 2.21078888e-01 1.83736280e-01
      1.17312327e-01 1.43327594e-01 1.65484622e-01 1.54085264e-01
      1.33124977e-01 1.41442657e-01 2.24653006e-01 2.24653006e-01
      2.24653006e-01 1.18168689e-01 9.26278532e-02 2.24653006e-01
      2.24653006e-01 1.51933655e-01 1.57524154e-01 1.78095147e-01
      1.88136294e-01 2.24653006e-01 1.41250938e-01 1.75698385e-01
      9.14400592e-02 1.34819776e-01 2.01121435e-01 1.42157018e-01
      8.16355720e-02 1.79560781e-01 1.74065858e-01 1.05886392e-01
      1.86778173e-01 1.26004055e-01 9.09532979e-02 2.16080621e-01
      1.20266378e-01 4.38271537e-02 1.05422147e-01 1.74291834e-01
      2.34910473e-01 2.34910473e-01 1.97894678e-01 2.06546471e-01
      1.29517421e-01 7.89516941e-02 4.27532569e-02 1.12965591e-01
      2.34910473e-01 1.61351532e-01 2.34910473e-01 2.34910473e-01
      2.34910473e-01 2.34910473e-01 9.65751857e-02 1.98853966e-02
      4.96973656e-02 1.10192724e-01 2.34910473e-01 2.34910473e-01
      2.17976347e-01 1.39508560e-01 1.15809903e-01 5.97584434e-02
      3.36518548e-02 2.30315719e-02 1.05968885e-01 2.33340889e-01
      2.33340889e-01 2.33340889e-01 2.33340889e-01 2.22595885e-01
      1.53418332e-01 6.78624436e-02 3.53298597e-02 1.00153089e-01
      1.68911576e-01 2.33340889e-01 2.33340889e-01 2.33340889e-01
      2.33340889e-01 9.22044516e-02 4.42862473e-02 4.69730608e-02
      8.04229677e-02 1.93817183e-01 2.33340889e-01 2.33340889e-01
      2.33340889e-01 2.33340889e-01 1.30174339e-01 8.16480666e-02
      5.55297546e-02 7.58663043e-02 8.36698636e-02 1.83807716e-01
      1.31150395e-01 1.20932564e-01 9.48069841e-02 1.12063371e-01
      2.30042800e-01 1.57671183e-01 2.14300215e-01 1.27740130e-01
      1.68279886e-01 1.40330315e-01 1.77352116e-01 1.52953595e-01
      1.26539230e-01 2.09742025e-01 1.86051399e-01 2.30042800e-01
      2.15904474e-01 1.72600731e-01 2.30042800e-01 1.41210407e-01
      3.95339653e-02 4.16879207e-02 8.80139843e-02 1.03787668e-01
      1.92765206e-01 1.43504769e-01 2.19880372e-01 1.77738860e-01
      7.97723308e-02 6.20914213e-02 7.59563148e-02 1.32161483e-01
      2.30042800e-01 2.30042800e-01 2.30042800e-01 2.30042800e-01
      1.59169793e-01 2.05703542e-01 1.57356754e-01 5.75450510e-02
      4.18096893e-02 6.69506267e-02 2.02032015e-01 2.05978915e-01
      1.78376436e-01 2.01874286e-01 2.32924849e-01 2.32924849e-01
      1.38853759e-01 3.99248786e-02 7.14833513e-02 5.87057285e-02
      8.52829590e-02 1.19645804e-01 2.32924849e-01 1.30056888e-01
      1.02268457e-01 7.51947090e-02 9.12540630e-02 1.17499761e-01
      1.94489345e-01 2.32924849e-01 2.32924849e-01 1.89024508e-01
      2.10930079e-01 2.29614630e-01 2.32924849e-01 2.32924849e-01
      2.28849545e-01 8.54696780e-02 9.71597657e-02 1.18568182e-01
      1.54049844e-01 2.55186647e-01 2.55186647e-01 1.65157825e-01
      1.19926520e-01 1.67957962e-01 8.73648152e-02 6.61376640e-02
      1.02055266e-01 1.44244596e-01 1.32220730e-01 1.31239206e-01
      9.84450579e-02 1.30287439e-01 1.32613152e-01 1.42115295e-01
      1.19954146e-01 1.16305754e-01 5.48609346e-02 1.92855492e-01
      1.79530367e-01 2.55186647e-01 2.55186647e-01 2.55186647e-01
      2.02411771e-01 6.62461743e-02 6.11319393e-02 4.70424257e-02
      9.99998972e-02 1.63318992e-01 1.73646584e-01 2.55186647e-01
      2.55186647e-01 2.55186647e-01 1.25224844e-01 7.96022862e-02
      2.36698493e-01 1.71903864e-01 3.97417508e-02 4.38516699e-02
      6.84835166e-02 9.00009125e-02 1.22112349e-01 1.25175178e-01
      2.00577483e-01 1.91928610e-01 6.27563745e-02 4.47106436e-02
      8.05856809e-02 1.17061198e-01 1.99877933e-01 2.36698493e-01
      2.36698493e-01 2.36698493e-01 1.46725520e-01 1.09314166e-01
      7.64247403e-02 1.50698140e-01 2.07199931e-01 2.07695201e-01
      1.28459930e-01 1.69307917e-01 2.32695103e-01 6.80211186e-02
      7.31714740e-02 1.23981006e-01 1.95459589e-01 2.36698493e-01
      2.36698493e-01 2.21423835e-01 2.36698493e-01 1.60861671e-01
      2.35300973e-01 8.69488195e-02 6.96189553e-02 8.98557752e-02
      1.47147819e-01 1.34430900e-01 1.99741155e-01 2.35300973e-01
      2.33301744e-01 1.77509770e-01 1.49513423e-01 1.83565021e-01
      2.35300973e-01 2.35300973e-01 2.35300973e-01 1.26962513e-01
      1.35386944e-01 9.15147513e-02 9.80215892e-02 7.28340819e-02
      1.02615736e-01 1.50207013e-01 1.89048842e-01 1.75079286e-01
      1.42525122e-01 1.71795130e-01 9.69656259e-02 9.54881236e-02
      9.09658149e-02 1.38267249e-01 2.35300973e-01 2.35300973e-01
      2.35300973e-01 1.75853387e-01 1.46465480e-01 8.53615850e-02
      2.14279927e-02 6.88928217e-02 1.14211991e-01 2.53301948e-01
      2.53301948e-01 2.53301948e-01 1.19022332e-01 5.39004840e-02
      2.30032764e-02 7.50865489e-02 8.56870785e-02 1.35128915e-01
      1.92871153e-01 2.53301948e-01 2.53301948e-01 1.42652631e-01
      5.61447479e-02 5.29962666e-02 4.68660444e-02 7.72886723e-02
      9.95900109e-02 2.11085573e-01 2.53301948e-01 2.53301948e-01
      1.48810849e-01 9.29558873e-02 6.00860044e-02 1.78266585e-01
      1.71428859e-01 1.47523642e-01 2.40239352e-01 2.53301948e-01
      2.53301948e-01 1.36944771e-01 1.28300354e-01 1.28492743e-01
      1.45161673e-01 7.21391439e-02 7.42264539e-02 1.31919101e-01
      2.04918027e-01 2.09780097e-01 1.61102891e-01 1.68136239e-01
      1.64672956e-01 7.15975985e-02 8.16161931e-02 1.24567866e-01
      1.36595652e-01 2.34570146e-01 2.34570146e-01 2.12886095e-01
      1.82395011e-01 1.47809818e-01 1.53714851e-01 7.12075979e-02
      4.52248231e-02 4.11826819e-02 1.35178611e-01 2.11229131e-01
      2.34570146e-01 2.34570146e-01 2.34570146e-01 1.01157337e-01
      8.66318792e-02 9.17374194e-02 7.89253190e-02 1.84665635e-01
      2.09732831e-01 2.09195822e-01 2.34570146e-01 2.34570146e-01
      8.07392970e-02 1.02071114e-01 9.58721116e-02 1.26216531e-01
      1.83517084e-01 2.09680632e-01 1.39884681e-01 6.48897737e-02
      1.02932587e-01 1.47496253e-01 9.76721644e-02 1.14951059e-01
      1.91308990e-01 1.98687643e-01 2.34702349e-01 2.18894586e-01
      1.63616940e-01 1.46553487e-01 1.28576472e-01 2.03310758e-01
      2.34702349e-01 1.69810161e-01 1.72602609e-01 1.39871970e-01
      1.06580667e-01 1.02583334e-01 1.29620373e-01 2.34702349e-01
      2.34702349e-01 2.34702349e-01 2.34702349e-01 1.76580608e-01
      1.09567940e-01 1.62690133e-01 1.14341095e-01 1.97097287e-01
      7.12765083e-02 7.18343779e-02 6.22932687e-02 1.58929422e-01
      2.17196345e-01 2.24842668e-01 1.81823894e-01 1.16645873e-01
      9.78204310e-02 1.87764555e-01 2.31788620e-01 1.42379388e-01
      1.50457814e-01 2.08924741e-01 1.31584540e-01 9.80655476e-02
      1.21214040e-01 1.83110222e-01 1.75395787e-01 1.44690990e-01
      1.29855245e-01 1.82895094e-01 1.54709771e-01 1.15562722e-01
      1.65232703e-01 2.38485053e-01 1.81709573e-01 2.38485053e-01
      2.38485053e-01 1.58698529e-01 9.23004895e-02 8.96266997e-02
      1.05083741e-01 1.29620895e-01 2.38485053e-01 2.38485053e-01
      2.38022044e-01 1.98817357e-01 1.55517071e-01 7.48058558e-02
      5.97185008e-02 1.36249319e-01 2.18874156e-01 2.43332297e-01
      2.07648218e-01 1.08818315e-01 8.89651105e-02 9.20809954e-02
      1.20083824e-01 1.61154896e-01 1.82968095e-01 1.46748275e-01
      2.03132898e-01 1.54285580e-01 2.43332297e-01 2.43332297e-01
      2.43332297e-01 2.43332297e-01 1.04705438e-01 9.12349001e-02
      5.22379205e-02 5.23035750e-02 1.41083762e-01 1.85823232e-01
      1.54448524e-01 2.31422842e-01 1.57411531e-01 9.85062569e-02
      1.31250590e-01 1.32654384e-01 9.11550298e-02 1.98693857e-01
      1.30679548e-01 1.52526915e-01 2.44511768e-01 2.38634154e-01
      2.18882561e-01 1.25299454e-01 9.17005762e-02 1.11220881e-01
      1.27470702e-01 2.51660913e-01 2.51660913e-01 2.51660913e-01
      2.51660913e-01 1.31659508e-01 3.53723951e-02 7.91938603e-02
      8.51470307e-02 1.57940626e-01 1.96835384e-01 1.80059195e-01
      8.86141732e-02 1.09007031e-01 1.35559708e-01 9.58151817e-02
      1.16708905e-01 9.11746472e-02 1.85233772e-01 2.51660913e-01
      2.51660913e-01 2.51660913e-01 1.39598846e-01 9.86705273e-02
      5.85326292e-02 7.98383951e-02 6.55700564e-02 1.46159992e-01
      1.41330943e-01 1.49224877e-01 1.88299119e-01 1.43556714e-01
      5.89352846e-02 3.76947783e-02 6.78736791e-02 1.62510723e-01
      1.35665953e-01 2.51757473e-01 2.21880287e-01 1.34606108e-01
      1.36345282e-01 8.15671831e-02 8.54821801e-02 2.14681610e-01
      2.51757473e-01 2.51757473e-01 1.29790649e-01 1.32692486e-01
      1.58200637e-01 1.23786055e-01 1.16740175e-01 1.18949853e-01
      1.26650169e-01 6.11732528e-02 7.99871311e-02 1.49855897e-01
      9.20466334e-02 1.21083565e-01 2.31768340e-01 2.51757473e-01
      2.51757473e-01 2.51757473e-01 2.43929029e-01 1.76101193e-01
      2.28990406e-01 2.47988224e-01 2.47988224e-01 1.80006832e-01
      6.95045292e-02 5.97570427e-02 2.94880755e-02 2.46588998e-02
      1.62102297e-01 1.66820183e-01 1.68907076e-01 2.00043917e-01
      8.84449780e-02 6.31007701e-02 7.74045438e-02 5.63391447e-02
      8.03926811e-02 2.02003330e-01 2.47988224e-01 2.47988224e-01
      2.47988224e-01 2.28368267e-01 1.08996630e-01 1.87432989e-02
      3.00502721e-02 8.19596276e-02 2.47988224e-01 2.41003841e-01
      2.07139462e-01 1.63137481e-01 1.02350652e-01 1.12621918e-01
      2.73359064e-02 8.07607993e-02 2.26689920e-01 2.47988224e-01
      2.74417222e-01 2.26697206e-01 1.00912869e-01 3.98806371e-02
      4.97605316e-02 5.19509166e-02 4.63208258e-02 9.26042199e-02
      2.62271464e-01 2.74417222e-01 2.74417222e-01 1.48535222e-01
      6.65016994e-02 4.67216894e-02 5.83308153e-02 6.77205324e-02
      6.07392155e-02 1.71344414e-01 2.74417222e-01 2.55550176e-01
      1.35753751e-01 4.24000546e-02 1.32252187e-01 4.51434180e-02
      9.61427912e-02 1.58513948e-01 2.74417222e-01 2.74417222e-01
      2.74417222e-01 9.93123055e-02 2.91564576e-02 9.78376567e-02
      5.98089620e-02 1.06234267e-01 6.50121644e-02 2.71597415e-01
      2.26744324e-01 2.08326161e-01 1.08893700e-01 8.71400312e-02
      1.10918939e-01 1.71832874e-01 1.84216335e-01 1.08793013e-01
      1.27700761e-01 1.41482741e-01 4.87532914e-02 8.97490978e-02
      1.26391545e-01 2.56723851e-01 2.56723851e-01 2.56723851e-01
      1.62286401e-01 1.73413411e-01 2.56723851e-01 2.42437616e-01
      6.25377446e-02 3.55978981e-02 7.30077103e-02 1.11673154e-01
      1.35424092e-01 1.31708100e-01 1.57510117e-01 1.34305790e-01
      7.54103661e-02 7.53326491e-02 1.05569698e-01 2.17331886e-01
      2.56723851e-01 2.56723851e-01 1.66153848e-01 1.52805388e-01</_>
    <_>
      1.04672797e-01 9.68086272e-02 1.19071424e-01 2.17895910e-01
      2.41794184e-01 1.69560075e-01 1.08664878e-01 2.34883055e-02
      3.65910456e-02 1.27548516e-01 2.22529367e-01 1.47437081e-01
      2.76708424e-01 2.76708424e-01 2.76708424e-01 1.46635279e-01
      3.56089734e-02 6.74552992e-02 4.88287173e-02 5.63681908e-02
      5.20489104e-02 1.58853143e-01 2.76708424e-01 2.32388958e-01
      1.28974676e-01 2.88783070e-02 4.04258817e-02 6.20603710e-02
      1.19566254e-01 6.28657565e-02 2.37942070e-01 2.76708424e-01
      2.76708424e-01 2.27270037e-01 3.49928923e-02 4.33641039e-02
      4.29896712e-02 9.68544632e-02 6.10843338e-02 1.70115352e-01
      2.60853738e-01 1.58694938e-01 5.31951599e-02 4.93385680e-02
      6.35922849e-02 3.79936993e-02 1.12765618e-01 1.20584287e-01
      2.55408615e-01 2.60853738e-01 2.60853738e-01 1.84479713e-01
